digraph Tree {
node [shape=box] ;
0 [label="recipe <= 0.5\ngini = 0.5\nsamples = 7395\nvalue = [3599, 3796]"] ;
1 [label="image_ratio <= 0.379\ngini = 0.496\nsamples = 6461\nvalue = [3517, 2944]"] ;
0 -> 1 [labeldistance=2.5, labelangle=45, headlabel="True"] ;
2 [label="html_ratio <= 0.271\ngini = 0.499\nsamples = 5422\nvalue = [2799, 2623]"] ;
1 -> 2 ;
3 [label="html_ratio <= 0.159\ngini = 0.5\nsamples = 4235\nvalue = [2123, 2112]"] ;
2 -> 3 ;
4 [label="html_ratio <= 0.083\ngini = 0.446\nsamples = 134\nvalue = [89, 45]"] ;
3 -> 4 ;
5 [label="gini = 0.0\nsamples = 2\nvalue = [0, 2]"] ;
4 -> 5 ;
6 [label="image_ratio <= 0.257\ngini = 0.439\nsamples = 132\nvalue = [89, 43]"] ;
4 -> 6 ;
7 [label="image_ratio <= 0.065\ngini = 0.415\nsamples = 109\nvalue = [77, 32]"] ;
6 -> 7 ;
8 [label="html_ratio <= 0.136\ngini = 0.473\nsamples = 60\nvalue = [37, 23]"] ;
7 -> 8 ;
9 [label="html_ratio <= 0.1\ngini = 0.497\nsamples = 24\nvalue = [11, 13]"] ;
8 -> 9 ;
10 [label="gini = 0.0\nsamples = 4\nvalue = [4, 0]"] ;
9 -> 10 ;
11 [label="html_ratio <= 0.128\ngini = 0.455\nsamples = 20\nvalue = [7, 13]"] ;
9 -> 11 ;
12 [label="html_ratio <= 0.126\ngini = 0.498\nsamples = 15\nvalue = [7, 8]"] ;
11 -> 12 ;
13 [label="html_ratio <= 0.117\ngini = 0.444\nsamples = 12\nvalue = [4, 8]"] ;
12 -> 13 ;
14 [label="html_ratio <= 0.103\ngini = 0.494\nsamples = 9\nvalue = [4, 5]"] ;
13 -> 14 ;
15 [label="gini = 0.0\nsamples = 2\nvalue = [0, 2]"] ;
14 -> 15 ;
16 [label="image_ratio <= -0.498\ngini = 0.49\nsamples = 7\nvalue = [4, 3]"] ;
14 -> 16 ;
17 [label="html_ratio <= 0.116\ngini = 0.375\nsamples = 4\nvalue = [3, 1]"] ;
16 -> 17 ;
18 [label="gini = 0.0\nsamples = 3\nvalue = [3, 0]"] ;
17 -> 18 ;
19 [label="gini = 0.0\nsamples = 1\nvalue = [0, 1]"] ;
17 -> 19 ;
20 [label="html_ratio <= 0.116\ngini = 0.444\nsamples = 3\nvalue = [1, 2]"] ;
16 -> 20 ;
21 [label="gini = 0.0\nsamples = 2\nvalue = [0, 2]"] ;
20 -> 21 ;
22 [label="gini = 0.0\nsamples = 1\nvalue = [1, 0]"] ;
20 -> 22 ;
23 [label="gini = 0.0\nsamples = 3\nvalue = [0, 3]"] ;
13 -> 23 ;
24 [label="gini = 0.0\nsamples = 3\nvalue = [3, 0]"] ;
12 -> 24 ;
25 [label="gini = 0.0\nsamples = 5\nvalue = [0, 5]"] ;
11 -> 25 ;
26 [label="image_ratio <= 0.002\ngini = 0.401\nsamples = 36\nvalue = [26, 10]"] ;
8 -> 26 ;
27 [label="html_ratio <= 0.153\ngini = 0.269\nsamples = 25\nvalue = [21, 4]"] ;
26 -> 27 ;
28 [label="html_ratio <= 0.152\ngini = 0.332\nsamples = 19\nvalue = [15, 4]"] ;
27 -> 28 ;
29 [label="html_ratio <= 0.15\ngini = 0.278\nsamples = 18\nvalue = [15, 3]"] ;
28 -> 29 ;
30 [label="html_ratio <= 0.148\ngini = 0.355\nsamples = 13\nvalue = [10, 3]"] ;
29 -> 30 ;
31 [label="html_ratio <= 0.145\ngini = 0.278\nsamples = 12\nvalue = [10, 2]"] ;
30 -> 31 ;
32 [label="html_ratio <= 0.145\ngini = 0.375\nsamples = 8\nvalue = [6, 2]"] ;
31 -> 32 ;
33 [label="html_ratio <= 0.142\ngini = 0.245\nsamples = 7\nvalue = [6, 1]"] ;
32 -> 33 ;
34 [label="gini = 0.0\nsamples = 3\nvalue = [3, 0]"] ;
33 -> 34 ;
35 [label="html_ratio <= 0.142\ngini = 0.375\nsamples = 4\nvalue = [3, 1]"] ;
33 -> 35 ;
36 [label="gini = 0.0\nsamples = 1\nvalue = [0, 1]"] ;
35 -> 36 ;
37 [label="gini = 0.0\nsamples = 3\nvalue = [3, 0]"] ;
35 -> 37 ;
38 [label="gini = 0.0\nsamples = 1\nvalue = [0, 1]"] ;
32 -> 38 ;
39 [label="gini = 0.0\nsamples = 4\nvalue = [4, 0]"] ;
31 -> 39 ;
40 [label="gini = 0.0\nsamples = 1\nvalue = [0, 1]"] ;
30 -> 40 ;
41 [label="gini = 0.0\nsamples = 5\nvalue = [5, 0]"] ;
29 -> 41 ;
42 [label="gini = 0.0\nsamples = 1\nvalue = [0, 1]"] ;
28 -> 42 ;
43 [label="gini = 0.0\nsamples = 6\nvalue = [6, 0]"] ;
27 -> 43 ;
44 [label="html_ratio <= 0.139\ngini = 0.496\nsamples = 11\nvalue = [5, 6]"] ;
26 -> 44 ;
45 [label="gini = 0.0\nsamples = 2\nvalue = [2, 0]"] ;
44 -> 45 ;
46 [label="html_ratio <= 0.152\ngini = 0.444\nsamples = 9\nvalue = [3, 6]"] ;
44 -> 46 ;
47 [label="gini = 0.0\nsamples = 2\nvalue = [0, 2]"] ;
46 -> 47 ;
48 [label="html_ratio <= 0.155\ngini = 0.49\nsamples = 7\nvalue = [3, 4]"] ;
46 -> 48 ;
49 [label="gini = 0.0\nsamples = 2\nvalue = [2, 0]"] ;
48 -> 49 ;
50 [label="html_ratio <= 0.157\ngini = 0.32\nsamples = 5\nvalue = [1, 4]"] ;
48 -> 50 ;
51 [label="gini = 0.0\nsamples = 3\nvalue = [0, 3]"] ;
50 -> 51 ;
52 [label="html_ratio <= 0.157\ngini = 0.5\nsamples = 2\nvalue = [1, 1]"] ;
50 -> 52 ;
53 [label="gini = 0.0\nsamples = 1\nvalue = [1, 0]"] ;
52 -> 53 ;
54 [label="gini = 0.0\nsamples = 1\nvalue = [0, 1]"] ;
52 -> 54 ;
55 [label="html_ratio <= 0.153\ngini = 0.3\nsamples = 49\nvalue = [40, 9]"] ;
7 -> 55 ;
56 [label="html_ratio <= 0.116\ngini = 0.355\nsamples = 39\nvalue = [30, 9]"] ;
55 -> 56 ;
57 [label="gini = 0.0\nsamples = 9\nvalue = [9, 0]"] ;
56 -> 57 ;
58 [label="image_ratio <= 0.164\ngini = 0.42\nsamples = 30\nvalue = [21, 9]"] ;
56 -> 58 ;
59 [label="html_ratio <= 0.125\ngini = 0.497\nsamples = 13\nvalue = [7, 6]"] ;
58 -> 59 ;
60 [label="gini = 0.0\nsamples = 2\nvalue = [0, 2]"] ;
59 -> 60 ;
61 [label="image_ratio <= 0.13\ngini = 0.463\nsamples = 11\nvalue = [7, 4]"] ;
59 -> 61 ;
62 [label="gini = 0.0\nsamples = 5\nvalue = [5, 0]"] ;
61 -> 62 ;
63 [label="html_ratio <= 0.137\ngini = 0.444\nsamples = 6\nvalue = [2, 4]"] ;
61 -> 63 ;
64 [label="image_ratio <= 0.144\ngini = 0.444\nsamples = 3\nvalue = [2, 1]"] ;
63 -> 64 ;
65 [label="gini = 0.0\nsamples = 1\nvalue = [1, 0]"] ;
64 -> 65 ;
66 [label="image_ratio <= 0.15\ngini = 0.5\nsamples = 2\nvalue = [1, 1]"] ;
64 -> 66 ;
67 [label="gini = 0.0\nsamples = 1\nvalue = [0, 1]"] ;
66 -> 67 ;
68 [label="gini = 0.0\nsamples = 1\nvalue = [1, 0]"] ;
66 -> 68 ;
69 [label="gini = 0.0\nsamples = 3\nvalue = [0, 3]"] ;
63 -> 69 ;
70 [label="html_ratio <= 0.132\ngini = 0.291\nsamples = 17\nvalue = [14, 3]"] ;
58 -> 70 ;
71 [label="gini = 0.0\nsamples = 7\nvalue = [7, 0]"] ;
70 -> 71 ;
72 [label="html_ratio <= 0.136\ngini = 0.42\nsamples = 10\nvalue = [7, 3]"] ;
70 -> 72 ;
73 [label="gini = 0.0\nsamples = 1\nvalue = [0, 1]"] ;
72 -> 73 ;
74 [label="image_ratio <= 0.213\ngini = 0.346\nsamples = 9\nvalue = [7, 2]"] ;
72 -> 74 ;
75 [label="image_ratio <= 0.208\ngini = 0.444\nsamples = 6\nvalue = [4, 2]"] ;
74 -> 75 ;
76 [label="image_ratio <= 0.184\ngini = 0.32\nsamples = 5\nvalue = [4, 1]"] ;
75 -> 76 ;
77 [label="html_ratio <= 0.147\ngini = 0.5\nsamples = 2\nvalue = [1, 1]"] ;
76 -> 77 ;
78 [label="gini = 0.0\nsamples = 1\nvalue = [0, 1]"] ;
77 -> 78 ;
79 [label="gini = 0.0\nsamples = 1\nvalue = [1, 0]"] ;
77 -> 79 ;
80 [label="gini = 0.0\nsamples = 3\nvalue = [3, 0]"] ;
76 -> 80 ;
81 [label="gini = 0.0\nsamples = 1\nvalue = [0, 1]"] ;
75 -> 81 ;
82 [label="gini = 0.0\nsamples = 3\nvalue = [3, 0]"] ;
74 -> 82 ;
83 [label="gini = 0.0\nsamples = 10\nvalue = [10, 0]"] ;
55 -> 83 ;
84 [label="image_ratio <= 0.295\ngini = 0.499\nsamples = 23\nvalue = [12, 11]"] ;
6 -> 84 ;
85 [label="html_ratio <= 0.158\ngini = 0.375\nsamples = 8\nvalue = [2, 6]"] ;
84 -> 85 ;
86 [label="gini = 0.0\nsamples = 6\nvalue = [0, 6]"] ;
85 -> 86 ;
87 [label="gini = 0.0\nsamples = 2\nvalue = [2, 0]"] ;
85 -> 87 ;
88 [label="html_ratio <= 0.156\ngini = 0.444\nsamples = 15\nvalue = [10, 5]"] ;
84 -> 88 ;
89 [label="image_ratio <= 0.369\ngini = 0.355\nsamples = 13\nvalue = [10, 3]"] ;
88 -> 89 ;
90 [label="image_ratio <= 0.296\ngini = 0.278\nsamples = 12\nvalue = [10, 2]"] ;
89 -> 90 ;
91 [label="html_ratio <= 0.149\ngini = 0.5\nsamples = 2\nvalue = [1, 1]"] ;
90 -> 91 ;
92 [label="gini = 0.0\nsamples = 1\nvalue = [0, 1]"] ;
91 -> 92 ;
93 [label="gini = 0.0\nsamples = 1\nvalue = [1, 0]"] ;
91 -> 93 ;
94 [label="html_ratio <= 0.145\ngini = 0.18\nsamples = 10\nvalue = [9, 1]"] ;
90 -> 94 ;
95 [label="html_ratio <= 0.14\ngini = 0.32\nsamples = 5\nvalue = [4, 1]"] ;
94 -> 95 ;
96 [label="gini = 0.0\nsamples = 4\nvalue = [4, 0]"] ;
95 -> 96 ;
97 [label="gini = 0.0\nsamples = 1\nvalue = [0, 1]"] ;
95 -> 97 ;
98 [label="gini = 0.0\nsamples = 5\nvalue = [5, 0]"] ;
94 -> 98 ;
99 [label="gini = 0.0\nsamples = 1\nvalue = [0, 1]"] ;
89 -> 99 ;
100 [label="gini = 0.0\nsamples = 2\nvalue = [0, 2]"] ;
88 -> 100 ;
101 [label="html_ratio <= 0.201\ngini = 0.5\nsamples = 4101\nvalue = [2034, 2067]"] ;
3 -> 101 ;
102 [label="image_ratio <= 0.017\ngini = 0.49\nsamples = 881\nvalue = [377, 504]"] ;
101 -> 102 ;
103 [label="image_ratio <= 0.015\ngini = 0.497\nsamples = 141\nvalue = [76, 65]"] ;
102 -> 103 ;
104 [label="image_ratio <= 0.012\ngini = 0.5\nsamples = 132\nvalue = [68, 64]"] ;
103 -> 104 ;
105 [label="image_ratio <= 0.011\ngini = 0.497\nsamples = 127\nvalue = [68, 59]"] ;
104 -> 105 ;
106 [label="image_ratio <= 0.002\ngini = 0.499\nsamples = 124\nvalue = [65, 59]"] ;
105 -> 106 ;
107 [label="image_ratio <= -0.5\ngini = 0.494\nsamples = 110\nvalue = [61, 49]"] ;
106 -> 107 ;
108 [label="html_ratio <= 0.2\ngini = 0.497\nsamples = 106\nvalue = [57, 49]"] ;
107 -> 108 ;
109 [label="html_ratio <= 0.199\ngini = 0.499\nsamples = 101\nvalue = [53, 48]"] ;
108 -> 109 ;
110 [label="html_ratio <= 0.161\ngini = 0.497\nsamples = 98\nvalue = [53, 45]"] ;
109 -> 110 ;
111 [label="gini = 0.0\nsamples = 1\nvalue = [0, 1]"] ;
110 -> 111 ;
112 [label="html_ratio <= 0.162\ngini = 0.496\nsamples = 97\nvalue = [53, 44]"] ;
110 -> 112 ;
113 [label="gini = 0.0\nsamples = 3\nvalue = [3, 0]"] ;
112 -> 113 ;
114 [label="html_ratio <= 0.165\ngini = 0.498\nsamples = 94\nvalue = [50, 44]"] ;
112 -> 114 ;
115 [label="html_ratio <= 0.163\ngini = 0.42\nsamples = 10\nvalue = [3, 7]"] ;
114 -> 115 ;
116 [label="html_ratio <= 0.163\ngini = 0.5\nsamples = 4\nvalue = [2, 2]"] ;
115 -> 116 ;
117 [label="gini = 0.0\nsamples = 1\nvalue = [0, 1]"] ;
116 -> 117 ;
118 [label="html_ratio <= 0.163\ngini = 0.444\nsamples = 3\nvalue = [2, 1]"] ;
116 -> 118 ;
119 [label="gini = 0.0\nsamples = 1\nvalue = [1, 0]"] ;
118 -> 119 ;
120 [label="html_ratio <= 0.163\ngini = 0.5\nsamples = 2\nvalue = [1, 1]"] ;
118 -> 120 ;
121 [label="gini = 0.0\nsamples = 1\nvalue = [0, 1]"] ;
120 -> 121 ;
122 [label="gini = 0.0\nsamples = 1\nvalue = [1, 0]"] ;
120 -> 122 ;
123 [label="html_ratio <= 0.164\ngini = 0.278\nsamples = 6\nvalue = [1, 5]"] ;
115 -> 123 ;
124 [label="gini = 0.0\nsamples = 3\nvalue = [0, 3]"] ;
123 -> 124 ;
125 [label="html_ratio <= 0.164\ngini = 0.444\nsamples = 3\nvalue = [1, 2]"] ;
123 -> 125 ;
126 [label="gini = 0.0\nsamples = 1\nvalue = [1, 0]"] ;
125 -> 126 ;
127 [label="gini = 0.0\nsamples = 2\nvalue = [0, 2]"] ;
125 -> 127 ;
128 [label="html_ratio <= 0.166\ngini = 0.493\nsamples = 84\nvalue = [47, 37]"] ;
114 -> 128 ;
129 [label="gini = 0.0\nsamples = 3\nvalue = [3, 0]"] ;
128 -> 129 ;
130 [label="html_ratio <= 0.167\ngini = 0.496\nsamples = 81\nvalue = [44, 37]"] ;
128 -> 130 ;
131 [label="gini = 0.0\nsamples = 2\nvalue = [0, 2]"] ;
130 -> 131 ;
132 [label="html_ratio <= 0.168\ngini = 0.494\nsamples = 79\nvalue = [44, 35]"] ;
130 -> 132 ;
133 [label="gini = 0.0\nsamples = 3\nvalue = [3, 0]"] ;
132 -> 133 ;
134 [label="html_ratio <= 0.174\ngini = 0.497\nsamples = 76\nvalue = [41, 35]"] ;
132 -> 134 ;
135 [label="html_ratio <= 0.171\ngini = 0.48\nsamples = 15\nvalue = [6, 9]"] ;
134 -> 135 ;
136 [label="html_ratio <= 0.17\ngini = 0.49\nsamples = 7\nvalue = [4, 3]"] ;
135 -> 136 ;
137 [label="html_ratio <= 0.169\ngini = 0.48\nsamples = 5\nvalue = [2, 3]"] ;
136 -> 137 ;
138 [label="html_ratio <= 0.168\ngini = 0.444\nsamples = 3\nvalue = [2, 1]"] ;
137 -> 138 ;
139 [label="gini = 0.0\nsamples = 1\nvalue = [0, 1]"] ;
138 -> 139 ;
140 [label="gini = 0.0\nsamples = 2\nvalue = [2, 0]"] ;
138 -> 140 ;
141 [label="gini = 0.0\nsamples = 2\nvalue = [0, 2]"] ;
137 -> 141 ;
142 [label="gini = 0.0\nsamples = 2\nvalue = [2, 0]"] ;
136 -> 142 ;
143 [label="html_ratio <= 0.172\ngini = 0.375\nsamples = 8\nvalue = [2, 6]"] ;
135 -> 143 ;
144 [label="gini = 0.0\nsamples = 2\nvalue = [0, 2]"] ;
143 -> 144 ;
145 [label="html_ratio <= 0.172\ngini = 0.444\nsamples = 6\nvalue = [2, 4]"] ;
143 -> 145 ;
146 [label="gini = 0.0\nsamples = 1\nvalue = [1, 0]"] ;
145 -> 146 ;
147 [label="html_ratio <= 0.173\ngini = 0.32\nsamples = 5\nvalue = [1, 4]"] ;
145 -> 147 ;
148 [label="gini = 0.0\nsamples = 2\nvalue = [0, 2]"] ;
147 -> 148 ;
149 [label="html_ratio <= 0.174\ngini = 0.444\nsamples = 3\nvalue = [1, 2]"] ;
147 -> 149 ;
150 [label="gini = 0.0\nsamples = 1\nvalue = [1, 0]"] ;
149 -> 150 ;
151 [label="gini = 0.0\nsamples = 2\nvalue = [0, 2]"] ;
149 -> 151 ;
152 [label="html_ratio <= 0.182\ngini = 0.489\nsamples = 61\nvalue = [35, 26]"] ;
134 -> 152 ;
153 [label="html_ratio <= 0.18\ngini = 0.337\nsamples = 14\nvalue = [11, 3]"] ;
152 -> 153 ;
154 [label="html_ratio <= 0.179\ngini = 0.42\nsamples = 10\nvalue = [7, 3]"] ;
153 -> 154 ;
155 [label="html_ratio <= 0.175\ngini = 0.346\nsamples = 9\nvalue = [7, 2]"] ;
154 -> 155 ;
156 [label="html_ratio <= 0.175\ngini = 0.5\nsamples = 2\nvalue = [1, 1]"] ;
155 -> 156 ;
157 [label="gini = 0.0\nsamples = 1\nvalue = [1, 0]"] ;
156 -> 157 ;
158 [label="gini = 0.0\nsamples = 1\nvalue = [0, 1]"] ;
156 -> 158 ;
159 [label="html_ratio <= 0.178\ngini = 0.245\nsamples = 7\nvalue = [6, 1]"] ;
155 -> 159 ;
160 [label="gini = 0.0\nsamples = 4\nvalue = [4, 0]"] ;
159 -> 160 ;
161 [label="html_ratio <= 0.179\ngini = 0.444\nsamples = 3\nvalue = [2, 1]"] ;
159 -> 161 ;
162 [label="gini = 0.0\nsamples = 1\nvalue = [0, 1]"] ;
161 -> 162 ;
163 [label="gini = 0.0\nsamples = 2\nvalue = [2, 0]"] ;
161 -> 163 ;
164 [label="gini = 0.0\nsamples = 1\nvalue = [0, 1]"] ;
154 -> 164 ;
165 [label="gini = 0.0\nsamples = 4\nvalue = [4, 0]"] ;
153 -> 165 ;
166 [label="html_ratio <= 0.184\ngini = 0.5\nsamples = 47\nvalue = [24, 23]"] ;
152 -> 166 ;
167 [label="gini = 0.0\nsamples = 3\nvalue = [0, 3]"] ;
166 -> 167 ;
168 [label="html_ratio <= 0.189\ngini = 0.496\nsamples = 44\nvalue = [24, 20]"] ;
166 -> 168 ;
169 [label="html_ratio <= 0.188\ngini = 0.426\nsamples = 13\nvalue = [9, 4]"] ;
168 -> 169 ;
170 [label="html_ratio <= 0.188\ngini = 0.463\nsamples = 11\nvalue = [7, 4]"] ;
169 -> 170 ;
171 [label="html_ratio <= 0.187\ngini = 0.42\nsamples = 10\nvalue = [7, 3]"] ;
170 -> 171 ;
172 [label="html_ratio <= 0.186\ngini = 0.49\nsamples = 7\nvalue = [4, 3]"] ;
171 -> 172 ;
173 [label="html_ratio <= 0.184\ngini = 0.32\nsamples = 5\nvalue = [4, 1]"] ;
172 -> 173 ;
174 [label="html_ratio <= 0.184\ngini = 0.5\nsamples = 2\nvalue = [1, 1]"] ;
173 -> 174 ;
175 [label="gini = 0.0\nsamples = 1\nvalue = [1, 0]"] ;
174 -> 175 ;
176 [label="gini = 0.0\nsamples = 1\nvalue = [0, 1]"] ;
174 -> 176 ;
177 [label="gini = 0.0\nsamples = 3\nvalue = [3, 0]"] ;
173 -> 177 ;
178 [label="gini = 0.0\nsamples = 2\nvalue = [0, 2]"] ;
172 -> 178 ;
179 [label="gini = 0.0\nsamples = 3\nvalue = [3, 0]"] ;
171 -> 179 ;
180 [label="gini = 0.0\nsamples = 1\nvalue = [0, 1]"] ;
170 -> 180 ;
181 [label="gini = 0.0\nsamples = 2\nvalue = [2, 0]"] ;
169 -> 181 ;
182 [label="html_ratio <= 0.19\ngini = 0.499\nsamples = 31\nvalue = [15, 16]"] ;
168 -> 182 ;
183 [label="gini = 0.0\nsamples = 4\nvalue = [0, 4]"] ;
182 -> 183 ;
184 [label="html_ratio <= 0.191\ngini = 0.494\nsamples = 27\nvalue = [15, 12]"] ;
182 -> 184 ;
185 [label="html_ratio <= 0.19\ngini = 0.32\nsamples = 5\nvalue = [4, 1]"] ;
184 -> 185 ;
186 [label="html_ratio <= 0.19\ngini = 0.5\nsamples = 2\nvalue = [1, 1]"] ;
185 -> 186 ;
187 [label="gini = 0.0\nsamples = 1\nvalue = [1, 0]"] ;
186 -> 187 ;
188 [label="gini = 0.0\nsamples = 1\nvalue = [0, 1]"] ;
186 -> 188 ;
189 [label="gini = 0.0\nsamples = 3\nvalue = [3, 0]"] ;
185 -> 189 ;
190 [label="html_ratio <= 0.194\ngini = 0.5\nsamples = 22\nvalue = [11, 11]"] ;
184 -> 190 ;
191 [label="html_ratio <= 0.194\ngini = 0.375\nsamples = 8\nvalue = [2, 6]"] ;
190 -> 191 ;
192 [label="html_ratio <= 0.192\ngini = 0.48\nsamples = 5\nvalue = [2, 3]"] ;
191 -> 192 ;
193 [label="gini = 0.0\nsamples = 2\nvalue = [0, 2]"] ;
192 -> 193 ;
194 [label="html_ratio <= 0.193\ngini = 0.444\nsamples = 3\nvalue = [2, 1]"] ;
192 -> 194 ;
195 [label="gini = 0.0\nsamples = 1\nvalue = [1, 0]"] ;
194 -> 195 ;
196 [label="html_ratio <= 0.193\ngini = 0.5\nsamples = 2\nvalue = [1, 1]"] ;
194 -> 196 ;
197 [label="gini = 0.0\nsamples = 1\nvalue = [0, 1]"] ;
196 -> 197 ;
198 [label="gini = 0.0\nsamples = 1\nvalue = [1, 0]"] ;
196 -> 198 ;
199 [label="gini = 0.0\nsamples = 3\nvalue = [0, 3]"] ;
191 -> 199 ;
200 [label="html_ratio <= 0.198\ngini = 0.459\nsamples = 14\nvalue = [9, 5]"] ;
190 -> 200 ;
201 [label="html_ratio <= 0.196\ngini = 0.245\nsamples = 7\nvalue = [6, 1]"] ;
200 -> 201 ;
202 [label="gini = 0.0\nsamples = 3\nvalue = [3, 0]"] ;
201 -> 202 ;
203 [label="html_ratio <= 0.197\ngini = 0.375\nsamples = 4\nvalue = [3, 1]"] ;
201 -> 203 ;
204 [label="gini = 0.0\nsamples = 1\nvalue = [0, 1]"] ;
203 -> 204 ;
205 [label="gini = 0.0\nsamples = 3\nvalue = [3, 0]"] ;
203 -> 205 ;
206 [label="html_ratio <= 0.199\ngini = 0.49\nsamples = 7\nvalue = [3, 4]"] ;
200 -> 206 ;
207 [label="gini = 0.0\nsamples = 2\nvalue = [0, 2]"] ;
206 -> 207 ;
208 [label="html_ratio <= 0.199\ngini = 0.48\nsamples = 5\nvalue = [3, 2]"] ;
206 -> 208 ;
209 [label="gini = 0.0\nsamples = 2\nvalue = [2, 0]"] ;
208 -> 209 ;
210 [label="html_ratio <= 0.199\ngini = 0.444\nsamples = 3\nvalue = [1, 2]"] ;
208 -> 210 ;
211 [label="gini = 0.0\nsamples = 2\nvalue = [0, 2]"] ;
210 -> 211 ;
212 [label="gini = 0.0\nsamples = 1\nvalue = [1, 0]"] ;
210 -> 212 ;
213 [label="gini = 0.0\nsamples = 3\nvalue = [0, 3]"] ;
109 -> 213 ;
214 [label="html_ratio <= 0.201\ngini = 0.32\nsamples = 5\nvalue = [4, 1]"] ;
108 -> 214 ;
215 [label="gini = 0.0\nsamples = 4\nvalue = [4, 0]"] ;
214 -> 215 ;
216 [label="gini = 0.0\nsamples = 1\nvalue = [0, 1]"] ;
214 -> 216 ;
217 [label="gini = 0.0\nsamples = 4\nvalue = [4, 0]"] ;
107 -> 217 ;
218 [label="image_ratio <= 0.008\ngini = 0.408\nsamples = 14\nvalue = [4, 10]"] ;
106 -> 218 ;
219 [label="image_ratio <= 0.004\ngini = 0.219\nsamples = 8\nvalue = [1, 7]"] ;
218 -> 219 ;
220 [label="gini = 0.0\nsamples = 4\nvalue = [0, 4]"] ;
219 -> 220 ;
221 [label="image_ratio <= 0.005\ngini = 0.375\nsamples = 4\nvalue = [1, 3]"] ;
219 -> 221 ;
222 [label="gini = 0.0\nsamples = 1\nvalue = [1, 0]"] ;
221 -> 222 ;
223 [label="gini = 0.0\nsamples = 3\nvalue = [0, 3]"] ;
221 -> 223 ;
224 [label="image_ratio <= 0.009\ngini = 0.5\nsamples = 6\nvalue = [3, 3]"] ;
218 -> 224 ;
225 [label="gini = 0.0\nsamples = 2\nvalue = [2, 0]"] ;
224 -> 225 ;
226 [label="html_ratio <= 0.184\ngini = 0.375\nsamples = 4\nvalue = [1, 3]"] ;
224 -> 226 ;
227 [label="gini = 0.0\nsamples = 3\nvalue = [0, 3]"] ;
226 -> 227 ;
228 [label="gini = 0.0\nsamples = 1\nvalue = [1, 0]"] ;
226 -> 228 ;
229 [label="gini = 0.0\nsamples = 3\nvalue = [3, 0]"] ;
105 -> 229 ;
230 [label="gini = 0.0\nsamples = 5\nvalue = [0, 5]"] ;
104 -> 230 ;
231 [label="html_ratio <= 0.171\ngini = 0.198\nsamples = 9\nvalue = [8, 1]"] ;
103 -> 231 ;
232 [label="gini = 0.0\nsamples = 5\nvalue = [5, 0]"] ;
231 -> 232 ;
233 [label="html_ratio <= 0.172\ngini = 0.375\nsamples = 4\nvalue = [3, 1]"] ;
231 -> 233 ;
234 [label="gini = 0.0\nsamples = 1\nvalue = [0, 1]"] ;
233 -> 234 ;
235 [label="gini = 0.0\nsamples = 3\nvalue = [3, 0]"] ;
233 -> 235 ;
236 [label="html_ratio <= 0.181\ngini = 0.483\nsamples = 740\nvalue = [301, 439]"] ;
102 -> 236 ;
237 [label="image_ratio <= 0.018\ngini = 0.498\nsamples = 269\nvalue = [125, 144]"] ;
236 -> 237 ;
238 [label="gini = 0.0\nsamples = 5\nvalue = [0, 5]"] ;
237 -> 238 ;
239 [label="image_ratio <= 0.109\ngini = 0.499\nsamples = 264\nvalue = [125, 139]"] ;
237 -> 239 ;
240 [label="image_ratio <= 0.097\ngini = 0.497\nsamples = 111\nvalue = [60, 51]"] ;
239 -> 240 ;
241 [label="html_ratio <= 0.175\ngini = 0.5\nsamples = 103\nvalue = [52, 51]"] ;
240 -> 241 ;
242 [label="html_ratio <= 0.168\ngini = 0.492\nsamples = 71\nvalue = [31, 40]"] ;
241 -> 242 ;
243 [label="html_ratio <= 0.161\ngini = 0.483\nsamples = 27\nvalue = [16, 11]"] ;
242 -> 243 ;
244 [label="image_ratio <= 0.021\ngini = 0.278\nsamples = 6\nvalue = [1, 5]"] ;
243 -> 244 ;
245 [label="html_ratio <= 0.16\ngini = 0.5\nsamples = 2\nvalue = [1, 1]"] ;
244 -> 245 ;
246 [label="gini = 0.0\nsamples = 1\nvalue = [0, 1]"] ;
245 -> 246 ;
247 [label="gini = 0.0\nsamples = 1\nvalue = [1, 0]"] ;
245 -> 247 ;
248 [label="gini = 0.0\nsamples = 4\nvalue = [0, 4]"] ;
244 -> 248 ;
249 [label="image_ratio <= 0.049\ngini = 0.408\nsamples = 21\nvalue = [15, 6]"] ;
243 -> 249 ;
250 [label="image_ratio <= 0.044\ngini = 0.49\nsamples = 14\nvalue = [8, 6]"] ;
249 -> 250 ;
251 [label="image_ratio <= 0.029\ngini = 0.444\nsamples = 12\nvalue = [8, 4]"] ;
250 -> 251 ;
252 [label="image_ratio <= 0.018\ngini = 0.49\nsamples = 7\nvalue = [3, 4]"] ;
251 -> 252 ;
253 [label="gini = 0.0\nsamples = 1\nvalue = [1, 0]"] ;
252 -> 253 ;
254 [label="html_ratio <= 0.166\ngini = 0.444\nsamples = 6\nvalue = [2, 4]"] ;
252 -> 254 ;
255 [label="html_ratio <= 0.164\ngini = 0.32\nsamples = 5\nvalue = [1, 4]"] ;
254 -> 255 ;
256 [label="gini = 0.0\nsamples = 2\nvalue = [0, 2]"] ;
255 -> 256 ;
257 [label="html_ratio <= 0.165\ngini = 0.444\nsamples = 3\nvalue = [1, 2]"] ;
255 -> 257 ;
258 [label="gini = 0.0\nsamples = 1\nvalue = [1, 0]"] ;
257 -> 258 ;
259 [label="gini = 0.0\nsamples = 2\nvalue = [0, 2]"] ;
257 -> 259 ;
260 [label="gini = 0.0\nsamples = 1\nvalue = [1, 0]"] ;
254 -> 260 ;
261 [label="gini = 0.0\nsamples = 5\nvalue = [5, 0]"] ;
251 -> 261 ;
262 [label="gini = 0.0\nsamples = 2\nvalue = [0, 2]"] ;
250 -> 262 ;
263 [label="gini = 0.0\nsamples = 7\nvalue = [7, 0]"] ;
249 -> 263 ;
264 [label="image_ratio <= 0.049\ngini = 0.449\nsamples = 44\nvalue = [15, 29]"] ;
242 -> 264 ;
265 [label="image_ratio <= 0.046\ngini = 0.482\nsamples = 32\nvalue = [13, 19]"] ;
264 -> 265 ;
266 [label="image_ratio <= 0.031\ngini = 0.452\nsamples = 29\nvalue = [10, 19]"] ;
265 -> 266 ;
267 [label="image_ratio <= 0.027\ngini = 0.49\nsamples = 21\nvalue = [9, 12]"] ;
266 -> 267 ;
268 [label="image_ratio <= 0.018\ngini = 0.465\nsamples = 19\nvalue = [7, 12]"] ;
267 -> 268 ;
269 [label="gini = 0.0\nsamples = 1\nvalue = [1, 0]"] ;
268 -> 269 ;
270 [label="html_ratio <= 0.17\ngini = 0.444\nsamples = 18\nvalue = [6, 12]"] ;
268 -> 270 ;
271 [label="gini = 0.0\nsamples = 5\nvalue = [0, 5]"] ;
270 -> 271 ;
272 [label="image_ratio <= 0.019\ngini = 0.497\nsamples = 13\nvalue = [6, 7]"] ;
270 -> 272 ;
273 [label="gini = 0.0\nsamples = 2\nvalue = [0, 2]"] ;
272 -> 273 ;
274 [label="image_ratio <= 0.026\ngini = 0.496\nsamples = 11\nvalue = [6, 5]"] ;
272 -> 274 ;
275 [label="image_ratio <= 0.021\ngini = 0.444\nsamples = 9\nvalue = [6, 3]"] ;
274 -> 275 ;
276 [label="image_ratio <= 0.021\ngini = 0.5\nsamples = 6\nvalue = [3, 3]"] ;
275 -> 276 ;
277 [label="image_ratio <= 0.02\ngini = 0.375\nsamples = 4\nvalue = [3, 1]"] ;
276 -> 277 ;
278 [label="image_ratio <= 0.02\ngini = 0.5\nsamples = 2\nvalue = [1, 1]"] ;
277 -> 278 ;
279 [label="gini = 0.0\nsamples = 1\nvalue = [1, 0]"] ;
278 -> 279 ;
280 [label="gini = 0.0\nsamples = 1\nvalue = [0, 1]"] ;
278 -> 280 ;
281 [label="gini = 0.0\nsamples = 2\nvalue = [2, 0]"] ;
277 -> 281 ;
282 [label="gini = 0.0\nsamples = 2\nvalue = [0, 2]"] ;
276 -> 282 ;
283 [label="gini = 0.0\nsamples = 3\nvalue = [3, 0]"] ;
275 -> 283 ;
284 [label="gini = 0.0\nsamples = 2\nvalue = [0, 2]"] ;
274 -> 284 ;
285 [label="gini = 0.0\nsamples = 2\nvalue = [2, 0]"] ;
267 -> 285 ;
286 [label="html_ratio <= 0.169\ngini = 0.219\nsamples = 8\nvalue = [1, 7]"] ;
266 -> 286 ;
287 [label="gini = 0.0\nsamples = 1\nvalue = [1, 0]"] ;
286 -> 287 ;
288 [label="gini = 0.0\nsamples = 7\nvalue = [0, 7]"] ;
286 -> 288 ;
289 [label="gini = 0.0\nsamples = 3\nvalue = [3, 0]"] ;
265 -> 289 ;
290 [label="html_ratio <= 0.171\ngini = 0.278\nsamples = 12\nvalue = [2, 10]"] ;
264 -> 290 ;
291 [label="html_ratio <= 0.17\ngini = 0.444\nsamples = 6\nvalue = [2, 4]"] ;
290 -> 291 ;
292 [label="image_ratio <= 0.063\ngini = 0.32\nsamples = 5\nvalue = [1, 4]"] ;
291 -> 292 ;
293 [label="image_ratio <= 0.061\ngini = 0.5\nsamples = 2\nvalue = [1, 1]"] ;
292 -> 293 ;
294 [label="gini = 0.0\nsamples = 1\nvalue = [0, 1]"] ;
293 -> 294 ;
295 [label="gini = 0.0\nsamples = 1\nvalue = [1, 0]"] ;
293 -> 295 ;
296 [label="gini = 0.0\nsamples = 3\nvalue = [0, 3]"] ;
292 -> 296 ;
297 [label="gini = 0.0\nsamples = 1\nvalue = [1, 0]"] ;
291 -> 297 ;
298 [label="gini = 0.0\nsamples = 6\nvalue = [0, 6]"] ;
290 -> 298 ;
299 [label="image_ratio <= 0.091\ngini = 0.451\nsamples = 32\nvalue = [21, 11]"] ;
241 -> 299 ;
300 [label="image_ratio <= 0.058\ngini = 0.384\nsamples = 27\nvalue = [20, 7]"] ;
299 -> 300 ;
301 [label="image_ratio <= 0.021\ngini = 0.473\nsamples = 13\nvalue = [8, 5]"] ;
300 -> 301 ;
302 [label="gini = 0.0\nsamples = 3\nvalue = [3, 0]"] ;
301 -> 302 ;
303 [label="html_ratio <= 0.18\ngini = 0.5\nsamples = 10\nvalue = [5, 5]"] ;
301 -> 303 ;
304 [label="html_ratio <= 0.175\ngini = 0.469\nsamples = 8\nvalue = [3, 5]"] ;
303 -> 304 ;
305 [label="gini = 0.0\nsamples = 1\nvalue = [1, 0]"] ;
304 -> 305 ;
306 [label="html_ratio <= 0.178\ngini = 0.408\nsamples = 7\nvalue = [2, 5]"] ;
304 -> 306 ;
307 [label="html_ratio <= 0.177\ngini = 0.48\nsamples = 5\nvalue = [2, 3]"] ;
306 -> 307 ;
308 [label="html_ratio <= 0.176\ngini = 0.375\nsamples = 4\nvalue = [1, 3]"] ;
307 -> 308 ;
309 [label="image_ratio <= 0.025\ngini = 0.5\nsamples = 2\nvalue = [1, 1]"] ;
308 -> 309 ;
310 [label="gini = 0.0\nsamples = 1\nvalue = [1, 0]"] ;
309 -> 310 ;
311 [label="gini = 0.0\nsamples = 1\nvalue = [0, 1]"] ;
309 -> 311 ;
312 [label="gini = 0.0\nsamples = 2\nvalue = [0, 2]"] ;
308 -> 312 ;
313 [label="gini = 0.0\nsamples = 1\nvalue = [1, 0]"] ;
307 -> 313 ;
314 [label="gini = 0.0\nsamples = 2\nvalue = [0, 2]"] ;
306 -> 314 ;
315 [label="gini = 0.0\nsamples = 2\nvalue = [2, 0]"] ;
303 -> 315 ;
316 [label="html_ratio <= 0.179\ngini = 0.245\nsamples = 14\nvalue = [12, 2]"] ;
300 -> 316 ;
317 [label="html_ratio <= 0.179\ngini = 0.346\nsamples = 9\nvalue = [7, 2]"] ;
316 -> 317 ;
318 [label="html_ratio <= 0.176\ngini = 0.219\nsamples = 8\nvalue = [7, 1]"] ;
317 -> 318 ;
319 [label="html_ratio <= 0.176\ngini = 0.444\nsamples = 3\nvalue = [2, 1]"] ;
318 -> 319 ;
320 [label="gini = 0.0\nsamples = 2\nvalue = [2, 0]"] ;
319 -> 320 ;
321 [label="gini = 0.0\nsamples = 1\nvalue = [0, 1]"] ;
319 -> 321 ;
322 [label="gini = 0.0\nsamples = 5\nvalue = [5, 0]"] ;
318 -> 322 ;
323 [label="gini = 0.0\nsamples = 1\nvalue = [0, 1]"] ;
317 -> 323 ;
324 [label="gini = 0.0\nsamples = 5\nvalue = [5, 0]"] ;
316 -> 324 ;
325 [label="html_ratio <= 0.177\ngini = 0.32\nsamples = 5\nvalue = [1, 4]"] ;
299 -> 325 ;
326 [label="image_ratio <= 0.094\ngini = 0.5\nsamples = 2\nvalue = [1, 1]"] ;
325 -> 326 ;
327 [label="gini = 0.0\nsamples = 1\nvalue = [1, 0]"] ;
326 -> 327 ;
328 [label="gini = 0.0\nsamples = 1\nvalue = [0, 1]"] ;
326 -> 328 ;
329 [label="gini = 0.0\nsamples = 3\nvalue = [0, 3]"] ;
325 -> 329 ;
330 [label="gini = 0.0\nsamples = 8\nvalue = [8, 0]"] ;
240 -> 330 ;
331 [label="image_ratio <= 0.131\ngini = 0.489\nsamples = 153\nvalue = [65, 88]"] ;
239 -> 331 ;
332 [label="html_ratio <= 0.175\ngini = 0.142\nsamples = 13\nvalue = [1, 12]"] ;
331 -> 332 ;
333 [label="gini = 0.0\nsamples = 11\nvalue = [0, 11]"] ;
332 -> 333 ;
334 [label="image_ratio <= 0.116\ngini = 0.5\nsamples = 2\nvalue = [1, 1]"] ;
332 -> 334 ;
335 [label="gini = 0.0\nsamples = 1\nvalue = [1, 0]"] ;
334 -> 335 ;
336 [label="gini = 0.0\nsamples = 1\nvalue = [0, 1]"] ;
334 -> 336 ;
337 [label="html_ratio <= 0.178\ngini = 0.496\nsamples = 140\nvalue = [64, 76]"] ;
331 -> 337 ;
338 [label="html_ratio <= 0.176\ngini = 0.5\nsamples = 115\nvalue = [56, 59]"] ;
337 -> 338 ;
339 [label="image_ratio <= 0.297\ngini = 0.493\nsamples = 95\nvalue = [42, 53]"] ;
338 -> 339 ;
340 [label="image_ratio <= 0.133\ngini = 0.5\nsamples = 77\nvalue = [38, 39]"] ;
339 -> 340 ;
341 [label="gini = 0.0\nsamples = 2\nvalue = [2, 0]"] ;
340 -> 341 ;
342 [label="image_ratio <= 0.145\ngini = 0.499\nsamples = 75\nvalue = [36, 39]"] ;
340 -> 342 ;
343 [label="html_ratio <= 0.172\ngini = 0.375\nsamples = 8\nvalue = [2, 6]"] ;
342 -> 343 ;
344 [label="image_ratio <= 0.135\ngini = 0.245\nsamples = 7\nvalue = [1, 6]"] ;
343 -> 344 ;
345 [label="html_ratio <= 0.171\ngini = 0.5\nsamples = 2\nvalue = [1, 1]"] ;
344 -> 345 ;
346 [label="gini = 0.0\nsamples = 1\nvalue = [1, 0]"] ;
345 -> 346 ;
347 [label="gini = 0.0\nsamples = 1\nvalue = [0, 1]"] ;
345 -> 347 ;
348 [label="gini = 0.0\nsamples = 5\nvalue = [0, 5]"] ;
344 -> 348 ;
349 [label="gini = 0.0\nsamples = 1\nvalue = [1, 0]"] ;
343 -> 349 ;
350 [label="image_ratio <= 0.161\ngini = 0.5\nsamples = 67\nvalue = [34, 33]"] ;
342 -> 350 ;
351 [label="html_ratio <= 0.175\ngini = 0.375\nsamples = 12\nvalue = [9, 3]"] ;
350 -> 351 ;
352 [label="html_ratio <= 0.162\ngini = 0.298\nsamples = 11\nvalue = [9, 2]"] ;
351 -> 352 ;
353 [label="html_ratio <= 0.162\ngini = 0.5\nsamples = 2\nvalue = [1, 1]"] ;
352 -> 353 ;
354 [label="gini = 0.0\nsamples = 1\nvalue = [1, 0]"] ;
353 -> 354 ;
355 [label="gini = 0.0\nsamples = 1\nvalue = [0, 1]"] ;
353 -> 355 ;
356 [label="html_ratio <= 0.17\ngini = 0.198\nsamples = 9\nvalue = [8, 1]"] ;
352 -> 356 ;
357 [label="gini = 0.0\nsamples = 6\nvalue = [6, 0]"] ;
356 -> 357 ;
358 [label="html_ratio <= 0.172\ngini = 0.444\nsamples = 3\nvalue = [2, 1]"] ;
356 -> 358 ;
359 [label="gini = 0.0\nsamples = 1\nvalue = [0, 1]"] ;
358 -> 359 ;
360 [label="gini = 0.0\nsamples = 2\nvalue = [2, 0]"] ;
358 -> 360 ;
361 [label="gini = 0.0\nsamples = 1\nvalue = [0, 1]"] ;
351 -> 361 ;
362 [label="html_ratio <= 0.164\ngini = 0.496\nsamples = 55\nvalue = [25, 30]"] ;
350 -> 362 ;
363 [label="image_ratio <= 0.249\ngini = 0.459\nsamples = 14\nvalue = [9, 5]"] ;
362 -> 363 ;
364 [label="html_ratio <= 0.162\ngini = 0.469\nsamples = 8\nvalue = [3, 5]"] ;
363 -> 364 ;
365 [label="gini = 0.0\nsamples = 4\nvalue = [0, 4]"] ;
364 -> 365 ;
366 [label="html_ratio <= 0.163\ngini = 0.375\nsamples = 4\nvalue = [3, 1]"] ;
364 -> 366 ;
367 [label="gini = 0.0\nsamples = 2\nvalue = [2, 0]"] ;
366 -> 367 ;
368 [label="html_ratio <= 0.163\ngini = 0.5\nsamples = 2\nvalue = [1, 1]"] ;
366 -> 368 ;
369 [label="gini = 0.0\nsamples = 1\nvalue = [0, 1]"] ;
368 -> 369 ;
370 [label="gini = 0.0\nsamples = 1\nvalue = [1, 0]"] ;
368 -> 370 ;
371 [label="gini = 0.0\nsamples = 6\nvalue = [6, 0]"] ;
363 -> 371 ;
372 [label="html_ratio <= 0.169\ngini = 0.476\nsamples = 41\nvalue = [16, 25]"] ;
362 -> 372 ;
373 [label="image_ratio <= 0.223\ngini = 0.298\nsamples = 11\nvalue = [2, 9]"] ;
372 -> 373 ;
374 [label="image_ratio <= 0.199\ngini = 0.5\nsamples = 4\nvalue = [2, 2]"] ;
373 -> 374 ;
375 [label="gini = 0.0\nsamples = 2\nvalue = [0, 2]"] ;
374 -> 375 ;
376 [label="gini = 0.0\nsamples = 2\nvalue = [2, 0]"] ;
374 -> 376 ;
377 [label="gini = 0.0\nsamples = 7\nvalue = [0, 7]"] ;
373 -> 377 ;
378 [label="html_ratio <= 0.171\ngini = 0.498\nsamples = 30\nvalue = [14, 16]"] ;
372 -> 378 ;
379 [label="gini = 0.0\nsamples = 4\nvalue = [4, 0]"] ;
378 -> 379 ;
380 [label="html_ratio <= 0.174\ngini = 0.473\nsamples = 26\nvalue = [10, 16]"] ;
378 -> 380 ;
381 [label="html_ratio <= 0.173\ngini = 0.375\nsamples = 16\nvalue = [4, 12]"] ;
380 -> 381 ;
382 [label="image_ratio <= 0.186\ngini = 0.463\nsamples = 11\nvalue = [4, 7]"] ;
381 -> 382 ;
383 [label="gini = 0.0\nsamples = 3\nvalue = [0, 3]"] ;
382 -> 383 ;
384 [label="html_ratio <= 0.171\ngini = 0.5\nsamples = 8\nvalue = [4, 4]"] ;
382 -> 384 ;
385 [label="gini = 0.0\nsamples = 2\nvalue = [0, 2]"] ;
384 -> 385 ;
386 [label="image_ratio <= 0.269\ngini = 0.444\nsamples = 6\nvalue = [4, 2]"] ;
384 -> 386 ;
387 [label="html_ratio <= 0.172\ngini = 0.32\nsamples = 5\nvalue = [4, 1]"] ;
386 -> 387 ;
388 [label="gini = 0.0\nsamples = 3\nvalue = [3, 0]"] ;
387 -> 388 ;
389 [label="html_ratio <= 0.173\ngini = 0.5\nsamples = 2\nvalue = [1, 1]"] ;
387 -> 389 ;
390 [label="gini = 0.0\nsamples = 1\nvalue = [0, 1]"] ;
389 -> 390 ;
391 [label="gini = 0.0\nsamples = 1\nvalue = [1, 0]"] ;
389 -> 391 ;
392 [label="gini = 0.0\nsamples = 1\nvalue = [0, 1]"] ;
386 -> 392 ;
393 [label="gini = 0.0\nsamples = 5\nvalue = [0, 5]"] ;
381 -> 393 ;
394 [label="html_ratio <= 0.175\ngini = 0.48\nsamples = 10\nvalue = [6, 4]"] ;
380 -> 394 ;
395 [label="gini = 0.0\nsamples = 4\nvalue = [4, 0]"] ;
394 -> 395 ;
396 [label="image_ratio <= 0.193\ngini = 0.444\nsamples = 6\nvalue = [2, 4]"] ;
394 -> 396 ;
397 [label="html_ratio <= 0.176\ngini = 0.444\nsamples = 3\nvalue = [2, 1]"] ;
396 -> 397 ;
398 [label="gini = 0.0\nsamples = 2\nvalue = [2, 0]"] ;
397 -> 398 ;
399 [label="gini = 0.0\nsamples = 1\nvalue = [0, 1]"] ;
397 -> 399 ;
400 [label="gini = 0.0\nsamples = 3\nvalue = [0, 3]"] ;
396 -> 400 ;
401 [label="image_ratio <= 0.318\ngini = 0.346\nsamples = 18\nvalue = [4, 14]"] ;
339 -> 401 ;
402 [label="gini = 0.0\nsamples = 5\nvalue = [0, 5]"] ;
401 -> 402 ;
403 [label="image_ratio <= 0.322\ngini = 0.426\nsamples = 13\nvalue = [4, 9]"] ;
401 -> 403 ;
404 [label="gini = 0.0\nsamples = 1\nvalue = [1, 0]"] ;
403 -> 404 ;
405 [label="html_ratio <= 0.172\ngini = 0.375\nsamples = 12\nvalue = [3, 9]"] ;
403 -> 405 ;
406 [label="image_ratio <= 0.363\ngini = 0.469\nsamples = 8\nvalue = [3, 5]"] ;
405 -> 406 ;
407 [label="html_ratio <= 0.167\ngini = 0.408\nsamples = 7\nvalue = [2, 5]"] ;
406 -> 407 ;
408 [label="gini = 0.0\nsamples = 4\nvalue = [0, 4]"] ;
407 -> 408 ;
409 [label="image_ratio <= 0.327\ngini = 0.444\nsamples = 3\nvalue = [2, 1]"] ;
407 -> 409 ;
410 [label="gini = 0.0\nsamples = 1\nvalue = [0, 1]"] ;
409 -> 410 ;
411 [label="gini = 0.0\nsamples = 2\nvalue = [2, 0]"] ;
409 -> 411 ;
412 [label="gini = 0.0\nsamples = 1\nvalue = [1, 0]"] ;
406 -> 412 ;
413 [label="gini = 0.0\nsamples = 4\nvalue = [0, 4]"] ;
405 -> 413 ;
414 [label="image_ratio <= 0.18\ngini = 0.42\nsamples = 20\nvalue = [14, 6]"] ;
338 -> 414 ;
415 [label="html_ratio <= 0.178\ngini = 0.32\nsamples = 5\nvalue = [1, 4]"] ;
414 -> 415 ;
416 [label="gini = 0.0\nsamples = 4\nvalue = [0, 4]"] ;
415 -> 416 ;
417 [label="gini = 0.0\nsamples = 1\nvalue = [1, 0]"] ;
415 -> 417 ;
418 [label="html_ratio <= 0.177\ngini = 0.231\nsamples = 15\nvalue = [13, 2]"] ;
414 -> 418 ;
419 [label="gini = 0.0\nsamples = 10\nvalue = [10, 0]"] ;
418 -> 419 ;
420 [label="image_ratio <= 0.241\ngini = 0.48\nsamples = 5\nvalue = [3, 2]"] ;
418 -> 420 ;
421 [label="gini = 0.0\nsamples = 2\nvalue = [2, 0]"] ;
420 -> 421 ;
422 [label="image_ratio <= 0.332\ngini = 0.444\nsamples = 3\nvalue = [1, 2]"] ;
420 -> 422 ;
423 [label="gini = 0.0\nsamples = 2\nvalue = [0, 2]"] ;
422 -> 423 ;
424 [label="gini = 0.0\nsamples = 1\nvalue = [1, 0]"] ;
422 -> 424 ;
425 [label="html_ratio <= 0.179\ngini = 0.435\nsamples = 25\nvalue = [8, 17]"] ;
337 -> 425 ;
426 [label="image_ratio <= 0.151\ngini = 0.198\nsamples = 9\nvalue = [1, 8]"] ;
425 -> 426 ;
427 [label="gini = 0.0\nsamples = 1\nvalue = [1, 0]"] ;
426 -> 427 ;
428 [label="gini = 0.0\nsamples = 8\nvalue = [0, 8]"] ;
426 -> 428 ;
429 [label="image_ratio <= 0.169\ngini = 0.492\nsamples = 16\nvalue = [7, 9]"] ;
425 -> 429 ;
430 [label="gini = 0.0\nsamples = 4\nvalue = [0, 4]"] ;
429 -> 430 ;
431 [label="image_ratio <= 0.207\ngini = 0.486\nsamples = 12\nvalue = [7, 5]"] ;
429 -> 431 ;
432 [label="gini = 0.0\nsamples = 3\nvalue = [3, 0]"] ;
431 -> 432 ;
433 [label="html_ratio <= 0.179\ngini = 0.494\nsamples = 9\nvalue = [4, 5]"] ;
431 -> 433 ;
434 [label="gini = 0.0\nsamples = 1\nvalue = [1, 0]"] ;
433 -> 434 ;
435 [label="html_ratio <= 0.179\ngini = 0.469\nsamples = 8\nvalue = [3, 5]"] ;
433 -> 435 ;
436 [label="gini = 0.0\nsamples = 3\nvalue = [0, 3]"] ;
435 -> 436 ;
437 [label="html_ratio <= 0.181\ngini = 0.48\nsamples = 5\nvalue = [3, 2]"] ;
435 -> 437 ;
438 [label="image_ratio <= 0.346\ngini = 0.375\nsamples = 4\nvalue = [3, 1]"] ;
437 -> 438 ;
439 [label="gini = 0.0\nsamples = 3\nvalue = [3, 0]"] ;
438 -> 439 ;
440 [label="gini = 0.0\nsamples = 1\nvalue = [0, 1]"] ;
438 -> 440 ;
441 [label="gini = 0.0\nsamples = 1\nvalue = [0, 1]"] ;
437 -> 441 ;
442 [label="html_ratio <= 0.201\ngini = 0.468\nsamples = 471\nvalue = [176, 295]"] ;
236 -> 442 ;
443 [label="image_ratio <= 0.365\ngini = 0.471\nsamples = 463\nvalue = [176, 287]"] ;
442 -> 443 ;
444 [label="image_ratio <= 0.251\ngini = 0.474\nsamples = 457\nvalue = [176, 281]"] ;
443 -> 444 ;
445 [label="image_ratio <= 0.121\ngini = 0.461\nsamples = 385\nvalue = [139, 246]"] ;
444 -> 445 ;
446 [label="image_ratio <= 0.119\ngini = 0.48\nsamples = 225\nvalue = [90, 135]"] ;
445 -> 446 ;
447 [label="html_ratio <= 0.201\ngini = 0.477\nsamples = 222\nvalue = [87, 135]"] ;
446 -> 447 ;
448 [label="html_ratio <= 0.2\ngini = 0.474\nsamples = 220\nvalue = [85, 135]"] ;
447 -> 448 ;
449 [label="html_ratio <= 0.197\ngini = 0.482\nsamples = 205\nvalue = [83, 122]"] ;
448 -> 449 ;
450 [label="html_ratio <= 0.182\ngini = 0.467\nsamples = 164\nvalue = [61, 103]"] ;
449 -> 450 ;
451 [label="html_ratio <= 0.181\ngini = 0.375\nsamples = 4\nvalue = [3, 1]"] ;
450 -> 451 ;
452 [label="gini = 0.0\nsamples = 1\nvalue = [0, 1]"] ;
451 -> 452 ;
453 [label="gini = 0.0\nsamples = 3\nvalue = [3, 0]"] ;
451 -> 453 ;
454 [label="image_ratio <= 0.039\ngini = 0.462\nsamples = 160\nvalue = [58, 102]"] ;
450 -> 454 ;
455 [label="image_ratio <= 0.028\ngini = 0.5\nsamples = 20\nvalue = [10, 10]"] ;
454 -> 455 ;
456 [label="html_ratio <= 0.192\ngini = 0.444\nsamples = 12\nvalue = [4, 8]"] ;
455 -> 456 ;
457 [label="html_ratio <= 0.184\ngini = 0.219\nsamples = 8\nvalue = [1, 7]"] ;
456 -> 457 ;
458 [label="html_ratio <= 0.184\ngini = 0.5\nsamples = 2\nvalue = [1, 1]"] ;
457 -> 458 ;
459 [label="gini = 0.0\nsamples = 1\nvalue = [0, 1]"] ;
458 -> 459 ;
460 [label="gini = 0.0\nsamples = 1\nvalue = [1, 0]"] ;
458 -> 460 ;
461 [label="gini = 0.0\nsamples = 6\nvalue = [0, 6]"] ;
457 -> 461 ;
462 [label="html_ratio <= 0.196\ngini = 0.375\nsamples = 4\nvalue = [3, 1]"] ;
456 -> 462 ;
463 [label="gini = 0.0\nsamples = 3\nvalue = [3, 0]"] ;
462 -> 463 ;
464 [label="gini = 0.0\nsamples = 1\nvalue = [0, 1]"] ;
462 -> 464 ;
465 [label="html_ratio <= 0.187\ngini = 0.375\nsamples = 8\nvalue = [6, 2]"] ;
455 -> 465 ;
466 [label="gini = 0.0\nsamples = 2\nvalue = [2, 0]"] ;
465 -> 466 ;
467 [label="html_ratio <= 0.189\ngini = 0.444\nsamples = 6\nvalue = [4, 2]"] ;
465 -> 467 ;
468 [label="gini = 0.0\nsamples = 1\nvalue = [0, 1]"] ;
467 -> 468 ;
469 [label="html_ratio <= 0.193\ngini = 0.32\nsamples = 5\nvalue = [4, 1]"] ;
467 -> 469 ;
470 [label="gini = 0.0\nsamples = 3\nvalue = [3, 0]"] ;
469 -> 470 ;
471 [label="html_ratio <= 0.194\ngini = 0.5\nsamples = 2\nvalue = [1, 1]"] ;
469 -> 471 ;
472 [label="gini = 0.0\nsamples = 1\nvalue = [0, 1]"] ;
471 -> 472 ;
473 [label="gini = 0.0\nsamples = 1\nvalue = [1, 0]"] ;
471 -> 473 ;
474 [label="html_ratio <= 0.19\ngini = 0.451\nsamples = 140\nvalue = [48, 92]"] ;
454 -> 474 ;
475 [label="html_ratio <= 0.188\ngini = 0.485\nsamples = 75\nvalue = [31, 44]"] ;
474 -> 475 ;
476 [label="image_ratio <= 0.06\ngini = 0.432\nsamples = 57\nvalue = [18, 39]"] ;
475 -> 476 ;
477 [label="image_ratio <= 0.055\ngini = 0.497\nsamples = 13\nvalue = [7, 6]"] ;
476 -> 477 ;
478 [label="html_ratio <= 0.183\ngini = 0.444\nsamples = 9\nvalue = [3, 6]"] ;
477 -> 478 ;
479 [label="gini = 0.0\nsamples = 1\nvalue = [1, 0]"] ;
478 -> 479 ;
480 [label="image_ratio <= 0.048\ngini = 0.375\nsamples = 8\nvalue = [2, 6]"] ;
478 -> 480 ;
481 [label="gini = 0.0\nsamples = 3\nvalue = [0, 3]"] ;
480 -> 481 ;
482 [label="image_ratio <= 0.052\ngini = 0.48\nsamples = 5\nvalue = [2, 3]"] ;
480 -> 482 ;
483 [label="gini = 0.0\nsamples = 2\nvalue = [2, 0]"] ;
482 -> 483 ;
484 [label="gini = 0.0\nsamples = 3\nvalue = [0, 3]"] ;
482 -> 484 ;
485 [label="gini = 0.0\nsamples = 4\nvalue = [4, 0]"] ;
477 -> 485 ;
486 [label="image_ratio <= 0.089\ngini = 0.375\nsamples = 44\nvalue = [11, 33]"] ;
476 -> 486 ;
487 [label="gini = 0.0\nsamples = 16\nvalue = [0, 16]"] ;
486 -> 487 ;
488 [label="image_ratio <= 0.113\ngini = 0.477\nsamples = 28\nvalue = [11, 17]"] ;
486 -> 488 ;
489 [label="image_ratio <= 0.094\ngini = 0.494\nsamples = 18\nvalue = [10, 8]"] ;
488 -> 489 ;
490 [label="gini = 0.0\nsamples = 3\nvalue = [3, 0]"] ;
489 -> 490 ;
491 [label="image_ratio <= 0.097\ngini = 0.498\nsamples = 15\nvalue = [7, 8]"] ;
489 -> 491 ;
492 [label="gini = 0.0\nsamples = 3\nvalue = [0, 3]"] ;
491 -> 492 ;
493 [label="html_ratio <= 0.187\ngini = 0.486\nsamples = 12\nvalue = [7, 5]"] ;
491 -> 493 ;
494 [label="html_ratio <= 0.185\ngini = 0.494\nsamples = 9\nvalue = [4, 5]"] ;
493 -> 494 ;
495 [label="image_ratio <= 0.109\ngini = 0.375\nsamples = 4\nvalue = [3, 1]"] ;
494 -> 495 ;
496 [label="gini = 0.0\nsamples = 3\nvalue = [3, 0]"] ;
495 -> 496 ;
497 [label="gini = 0.0\nsamples = 1\nvalue = [0, 1]"] ;
495 -> 497 ;
498 [label="image_ratio <= 0.1\ngini = 0.32\nsamples = 5\nvalue = [1, 4]"] ;
494 -> 498 ;
499 [label="html_ratio <= 0.186\ngini = 0.5\nsamples = 2\nvalue = [1, 1]"] ;
498 -> 499 ;
500 [label="gini = 0.0\nsamples = 1\nvalue = [1, 0]"] ;
499 -> 500 ;
501 [label="gini = 0.0\nsamples = 1\nvalue = [0, 1]"] ;
499 -> 501 ;
502 [label="gini = 0.0\nsamples = 3\nvalue = [0, 3]"] ;
498 -> 502 ;
503 [label="gini = 0.0\nsamples = 3\nvalue = [3, 0]"] ;
493 -> 503 ;
504 [label="image_ratio <= 0.117\ngini = 0.18\nsamples = 10\nvalue = [1, 9]"] ;
488 -> 504 ;
505 [label="gini = 0.0\nsamples = 7\nvalue = [0, 7]"] ;
504 -> 505 ;
506 [label="image_ratio <= 0.118\ngini = 0.444\nsamples = 3\nvalue = [1, 2]"] ;
504 -> 506 ;
507 [label="gini = 0.0\nsamples = 1\nvalue = [1, 0]"] ;
506 -> 507 ;
508 [label="gini = 0.0\nsamples = 2\nvalue = [0, 2]"] ;
506 -> 508 ;
509 [label="image_ratio <= 0.074\ngini = 0.401\nsamples = 18\nvalue = [13, 5]"] ;
475 -> 509 ;
510 [label="html_ratio <= 0.19\ngini = 0.48\nsamples = 5\nvalue = [2, 3]"] ;
509 -> 510 ;
511 [label="html_ratio <= 0.189\ngini = 0.375\nsamples = 4\nvalue = [1, 3]"] ;
510 -> 511 ;
512 [label="image_ratio <= 0.063\ngini = 0.5\nsamples = 2\nvalue = [1, 1]"] ;
511 -> 512 ;
513 [label="gini = 0.0\nsamples = 1\nvalue = [0, 1]"] ;
512 -> 513 ;
514 [label="gini = 0.0\nsamples = 1\nvalue = [1, 0]"] ;
512 -> 514 ;
515 [label="gini = 0.0\nsamples = 2\nvalue = [0, 2]"] ;
511 -> 515 ;
516 [label="gini = 0.0\nsamples = 1\nvalue = [1, 0]"] ;
510 -> 516 ;
517 [label="image_ratio <= 0.105\ngini = 0.26\nsamples = 13\nvalue = [11, 2]"] ;
509 -> 517 ;
518 [label="gini = 0.0\nsamples = 8\nvalue = [8, 0]"] ;
517 -> 518 ;
519 [label="image_ratio <= 0.111\ngini = 0.48\nsamples = 5\nvalue = [3, 2]"] ;
517 -> 519 ;
520 [label="gini = 0.0\nsamples = 2\nvalue = [0, 2]"] ;
519 -> 520 ;
521 [label="gini = 0.0\nsamples = 3\nvalue = [3, 0]"] ;
519 -> 521 ;
522 [label="image_ratio <= 0.106\ngini = 0.386\nsamples = 65\nvalue = [17, 48]"] ;
474 -> 522 ;
523 [label="image_ratio <= 0.046\ngini = 0.32\nsamples = 50\nvalue = [10, 40]"] ;
522 -> 523 ;
524 [label="gini = 0.0\nsamples = 6\nvalue = [0, 6]"] ;
523 -> 524 ;
525 [label="image_ratio <= 0.047\ngini = 0.351\nsamples = 44\nvalue = [10, 34]"] ;
523 -> 525 ;
526 [label="gini = 0.0\nsamples = 1\nvalue = [1, 0]"] ;
525 -> 526 ;
527 [label="html_ratio <= 0.192\ngini = 0.331\nsamples = 43\nvalue = [9, 34]"] ;
525 -> 527 ;
528 [label="gini = 0.0\nsamples = 11\nvalue = [0, 11]"] ;
527 -> 528 ;
529 [label="image_ratio <= 0.05\ngini = 0.404\nsamples = 32\nvalue = [9, 23]"] ;
527 -> 529 ;
530 [label="html_ratio <= 0.194\ngini = 0.48\nsamples = 5\nvalue = [3, 2]"] ;
529 -> 530 ;
531 [label="gini = 0.0\nsamples = 2\nvalue = [0, 2]"] ;
530 -> 531 ;
532 [label="gini = 0.0\nsamples = 3\nvalue = [3, 0]"] ;
530 -> 532 ;
533 [label="html_ratio <= 0.194\ngini = 0.346\nsamples = 27\nvalue = [6, 21]"] ;
529 -> 533 ;
534 [label="image_ratio <= 0.07\ngini = 0.5\nsamples = 8\nvalue = [4, 4]"] ;
533 -> 534 ;
535 [label="gini = 0.0\nsamples = 3\nvalue = [3, 0]"] ;
534 -> 535 ;
536 [label="html_ratio <= 0.193\ngini = 0.32\nsamples = 5\nvalue = [1, 4]"] ;
534 -> 536 ;
537 [label="gini = 0.0\nsamples = 1\nvalue = [1, 0]"] ;
536 -> 537 ;
538 [label="gini = 0.0\nsamples = 4\nvalue = [0, 4]"] ;
536 -> 538 ;
539 [label="image_ratio <= 0.08\ngini = 0.188\nsamples = 19\nvalue = [2, 17]"] ;
533 -> 539 ;
540 [label="gini = 0.0\nsamples = 11\nvalue = [0, 11]"] ;
539 -> 540 ;
541 [label="image_ratio <= 0.083\ngini = 0.375\nsamples = 8\nvalue = [2, 6]"] ;
539 -> 541 ;
542 [label="gini = 0.0\nsamples = 1\nvalue = [1, 0]"] ;
541 -> 542 ;
543 [label="html_ratio <= 0.195\ngini = 0.245\nsamples = 7\nvalue = [1, 6]"] ;
541 -> 543 ;
544 [label="image_ratio <= 0.101\ngini = 0.5\nsamples = 2\nvalue = [1, 1]"] ;
543 -> 544 ;
545 [label="gini = 0.0\nsamples = 1\nvalue = [1, 0]"] ;
544 -> 545 ;
546 [label="gini = 0.0\nsamples = 1\nvalue = [0, 1]"] ;
544 -> 546 ;
547 [label="gini = 0.0\nsamples = 5\nvalue = [0, 5]"] ;
543 -> 547 ;
548 [label="html_ratio <= 0.196\ngini = 0.498\nsamples = 15\nvalue = [7, 8]"] ;
522 -> 548 ;
549 [label="image_ratio <= 0.114\ngini = 0.397\nsamples = 11\nvalue = [3, 8]"] ;
548 -> 549 ;
550 [label="image_ratio <= 0.111\ngini = 0.5\nsamples = 6\nvalue = [3, 3]"] ;
549 -> 550 ;
551 [label="image_ratio <= 0.108\ngini = 0.375\nsamples = 4\nvalue = [1, 3]"] ;
550 -> 551 ;
552 [label="gini = 0.0\nsamples = 1\nvalue = [1, 0]"] ;
551 -> 552 ;
553 [label="gini = 0.0\nsamples = 3\nvalue = [0, 3]"] ;
551 -> 553 ;
554 [label="gini = 0.0\nsamples = 2\nvalue = [2, 0]"] ;
550 -> 554 ;
555 [label="gini = 0.0\nsamples = 5\nvalue = [0, 5]"] ;
549 -> 555 ;
556 [label="gini = 0.0\nsamples = 4\nvalue = [4, 0]"] ;
548 -> 556 ;
557 [label="html_ratio <= 0.197\ngini = 0.497\nsamples = 41\nvalue = [22, 19]"] ;
449 -> 557 ;
558 [label="gini = 0.0\nsamples = 4\nvalue = [4, 0]"] ;
557 -> 558 ;
559 [label="html_ratio <= 0.198\ngini = 0.5\nsamples = 37\nvalue = [18, 19]"] ;
557 -> 559 ;
560 [label="image_ratio <= 0.098\ngini = 0.375\nsamples = 8\nvalue = [2, 6]"] ;
559 -> 560 ;
561 [label="gini = 0.0\nsamples = 5\nvalue = [0, 5]"] ;
560 -> 561 ;
562 [label="image_ratio <= 0.108\ngini = 0.444\nsamples = 3\nvalue = [2, 1]"] ;
560 -> 562 ;
563 [label="gini = 0.0\nsamples = 2\nvalue = [2, 0]"] ;
562 -> 563 ;
564 [label="gini = 0.0\nsamples = 1\nvalue = [0, 1]"] ;
562 -> 564 ;
565 [label="html_ratio <= 0.199\ngini = 0.495\nsamples = 29\nvalue = [16, 13]"] ;
559 -> 565 ;
566 [label="image_ratio <= 0.086\ngini = 0.355\nsamples = 13\nvalue = [10, 3]"] ;
565 -> 566 ;
567 [label="gini = 0.0\nsamples = 5\nvalue = [5, 0]"] ;
566 -> 567 ;
568 [label="image_ratio <= 0.087\ngini = 0.469\nsamples = 8\nvalue = [5, 3]"] ;
566 -> 568 ;
569 [label="gini = 0.0\nsamples = 1\nvalue = [0, 1]"] ;
568 -> 569 ;
570 [label="html_ratio <= 0.198\ngini = 0.408\nsamples = 7\nvalue = [5, 2]"] ;
568 -> 570 ;
571 [label="gini = 0.0\nsamples = 3\nvalue = [3, 0]"] ;
570 -> 571 ;
572 [label="html_ratio <= 0.198\ngini = 0.5\nsamples = 4\nvalue = [2, 2]"] ;
570 -> 572 ;
573 [label="gini = 0.0\nsamples = 1\nvalue = [0, 1]"] ;
572 -> 573 ;
574 [label="html_ratio <= 0.198\ngini = 0.444\nsamples = 3\nvalue = [2, 1]"] ;
572 -> 574 ;
575 [label="gini = 0.0\nsamples = 1\nvalue = [1, 0]"] ;
574 -> 575 ;
576 [label="html_ratio <= 0.199\ngini = 0.5\nsamples = 2\nvalue = [1, 1]"] ;
574 -> 576 ;
577 [label="gini = 0.0\nsamples = 1\nvalue = [0, 1]"] ;
576 -> 577 ;
578 [label="gini = 0.0\nsamples = 1\nvalue = [1, 0]"] ;
576 -> 578 ;
579 [label="image_ratio <= 0.087\ngini = 0.469\nsamples = 16\nvalue = [6, 10]"] ;
565 -> 579 ;
580 [label="html_ratio <= 0.199\ngini = 0.496\nsamples = 11\nvalue = [6, 5]"] ;
579 -> 580 ;
581 [label="gini = 0.0\nsamples = 3\nvalue = [0, 3]"] ;
580 -> 581 ;
582 [label="image_ratio <= 0.071\ngini = 0.375\nsamples = 8\nvalue = [6, 2]"] ;
580 -> 582 ;
583 [label="image_ratio <= 0.056\ngini = 0.444\nsamples = 3\nvalue = [1, 2]"] ;
582 -> 583 ;
584 [label="gini = 0.0\nsamples = 1\nvalue = [1, 0]"] ;
583 -> 584 ;
585 [label="gini = 0.0\nsamples = 2\nvalue = [0, 2]"] ;
583 -> 585 ;
586 [label="gini = 0.0\nsamples = 5\nvalue = [5, 0]"] ;
582 -> 586 ;
587 [label="gini = 0.0\nsamples = 5\nvalue = [0, 5]"] ;
579 -> 587 ;
588 [label="image_ratio <= 0.051\ngini = 0.231\nsamples = 15\nvalue = [2, 13]"] ;
448 -> 588 ;
589 [label="html_ratio <= 0.201\ngini = 0.5\nsamples = 4\nvalue = [2, 2]"] ;
588 -> 589 ;
590 [label="gini = 0.0\nsamples = 2\nvalue = [0, 2]"] ;
589 -> 590 ;
591 [label="gini = 0.0\nsamples = 2\nvalue = [2, 0]"] ;
589 -> 591 ;
592 [label="gini = 0.0\nsamples = 11\nvalue = [0, 11]"] ;
588 -> 592 ;
593 [label="gini = 0.0\nsamples = 2\nvalue = [2, 0]"] ;
447 -> 593 ;
594 [label="gini = 0.0\nsamples = 3\nvalue = [3, 0]"] ;
446 -> 594 ;
595 [label="html_ratio <= 0.184\ngini = 0.425\nsamples = 160\nvalue = [49, 111]"] ;
445 -> 595 ;
596 [label="html_ratio <= 0.183\ngini = 0.18\nsamples = 20\nvalue = [2, 18]"] ;
595 -> 596 ;
597 [label="html_ratio <= 0.183\ngini = 0.32\nsamples = 10\nvalue = [2, 8]"] ;
596 -> 597 ;
598 [label="gini = 0.0\nsamples = 8\nvalue = [0, 8]"] ;
597 -> 598 ;
599 [label="gini = 0.0\nsamples = 2\nvalue = [2, 0]"] ;
597 -> 599 ;
600 [label="gini = 0.0\nsamples = 10\nvalue = [0, 10]"] ;
596 -> 600 ;
601 [label="html_ratio <= 0.184\ngini = 0.446\nsamples = 140\nvalue = [47, 93]"] ;
595 -> 601 ;
602 [label="gini = 0.0\nsamples = 3\nvalue = [3, 0]"] ;
601 -> 602 ;
603 [label="image_ratio <= 0.126\ngini = 0.436\nsamples = 137\nvalue = [44, 93]"] ;
601 -> 603 ;
604 [label="gini = 0.0\nsamples = 5\nvalue = [0, 5]"] ;
603 -> 604 ;
605 [label="image_ratio <= 0.126\ngini = 0.444\nsamples = 132\nvalue = [44, 88]"] ;
603 -> 605 ;
606 [label="gini = 0.0\nsamples = 1\nvalue = [1, 0]"] ;
605 -> 606 ;
607 [label="html_ratio <= 0.201\ngini = 0.441\nsamples = 131\nvalue = [43, 88]"] ;
605 -> 607 ;
608 [label="image_ratio <= 0.18\ngini = 0.437\nsamples = 130\nvalue = [42, 88]"] ;
607 -> 608 ;
609 [label="html_ratio <= 0.196\ngini = 0.397\nsamples = 66\nvalue = [18, 48]"] ;
608 -> 609 ;
610 [label="image_ratio <= 0.129\ngini = 0.444\nsamples = 48\nvalue = [16, 32]"] ;
609 -> 610 ;
611 [label="gini = 0.0\nsamples = 5\nvalue = [0, 5]"] ;
610 -> 611 ;
612 [label="image_ratio <= 0.131\ngini = 0.467\nsamples = 43\nvalue = [16, 27]"] ;
610 -> 612 ;
613 [label="gini = 0.0\nsamples = 2\nvalue = [2, 0]"] ;
612 -> 613 ;
614 [label="html_ratio <= 0.196\ngini = 0.45\nsamples = 41\nvalue = [14, 27]"] ;
612 -> 614 ;
615 [label="html_ratio <= 0.185\ngini = 0.439\nsamples = 40\nvalue = [13, 27]"] ;
614 -> 615 ;
616 [label="gini = 0.0\nsamples = 3\nvalue = [0, 3]"] ;
615 -> 616 ;
617 [label="html_ratio <= 0.185\ngini = 0.456\nsamples = 37\nvalue = [13, 24]"] ;
615 -> 617 ;
618 [label="gini = 0.0\nsamples = 2\nvalue = [2, 0]"] ;
617 -> 618 ;
619 [label="image_ratio <= 0.154\ngini = 0.431\nsamples = 35\nvalue = [11, 24]"] ;
617 -> 619 ;
620 [label="image_ratio <= 0.153\ngini = 0.492\nsamples = 16\nvalue = [7, 9]"] ;
619 -> 620 ;
621 [label="html_ratio <= 0.189\ngini = 0.459\nsamples = 14\nvalue = [5, 9]"] ;
620 -> 621 ;
622 [label="gini = 0.0\nsamples = 3\nvalue = [0, 3]"] ;
621 -> 622 ;
623 [label="html_ratio <= 0.195\ngini = 0.496\nsamples = 11\nvalue = [5, 6]"] ;
621 -> 623 ;
624 [label="image_ratio <= 0.135\ngini = 0.494\nsamples = 9\nvalue = [5, 4]"] ;
623 -> 624 ;
625 [label="html_ratio <= 0.192\ngini = 0.49\nsamples = 7\nvalue = [3, 4]"] ;
624 -> 625 ;
626 [label="gini = 0.0\nsamples = 2\nvalue = [0, 2]"] ;
625 -> 626 ;
627 [label="html_ratio <= 0.193\ngini = 0.48\nsamples = 5\nvalue = [3, 2]"] ;
625 -> 627 ;
628 [label="gini = 0.0\nsamples = 2\nvalue = [2, 0]"] ;
627 -> 628 ;
629 [label="html_ratio <= 0.194\ngini = 0.444\nsamples = 3\nvalue = [1, 2]"] ;
627 -> 629 ;
630 [label="gini = 0.0\nsamples = 2\nvalue = [0, 2]"] ;
629 -> 630 ;
631 [label="gini = 0.0\nsamples = 1\nvalue = [1, 0]"] ;
629 -> 631 ;
632 [label="gini = 0.0\nsamples = 2\nvalue = [2, 0]"] ;
624 -> 632 ;
633 [label="gini = 0.0\nsamples = 2\nvalue = [0, 2]"] ;
623 -> 633 ;
634 [label="gini = 0.0\nsamples = 2\nvalue = [2, 0]"] ;
620 -> 634 ;
635 [label="image_ratio <= 0.168\ngini = 0.332\nsamples = 19\nvalue = [4, 15]"] ;
619 -> 635 ;
636 [label="gini = 0.0\nsamples = 8\nvalue = [0, 8]"] ;
635 -> 636 ;
637 [label="html_ratio <= 0.192\ngini = 0.463\nsamples = 11\nvalue = [4, 7]"] ;
635 -> 637 ;
638 [label="image_ratio <= 0.18\ngini = 0.5\nsamples = 8\nvalue = [4, 4]"] ;
637 -> 638 ;
639 [label="image_ratio <= 0.176\ngini = 0.444\nsamples = 6\nvalue = [4, 2]"] ;
638 -> 639 ;
640 [label="html_ratio <= 0.19\ngini = 0.444\nsamples = 3\nvalue = [1, 2]"] ;
639 -> 640 ;
641 [label="gini = 0.0\nsamples = 2\nvalue = [0, 2]"] ;
640 -> 641 ;
642 [label="gini = 0.0\nsamples = 1\nvalue = [1, 0]"] ;
640 -> 642 ;
643 [label="gini = 0.0\nsamples = 3\nvalue = [3, 0]"] ;
639 -> 643 ;
644 [label="gini = 0.0\nsamples = 2\nvalue = [0, 2]"] ;
638 -> 644 ;
645 [label="gini = 0.0\nsamples = 3\nvalue = [0, 3]"] ;
637 -> 645 ;
646 [label="gini = 0.0\nsamples = 1\nvalue = [1, 0]"] ;
614 -> 646 ;
647 [label="image_ratio <= 0.132\ngini = 0.198\nsamples = 18\nvalue = [2, 16]"] ;
609 -> 647 ;
648 [label="gini = 0.0\nsamples = 1\nvalue = [1, 0]"] ;
647 -> 648 ;
649 [label="html_ratio <= 0.201\ngini = 0.111\nsamples = 17\nvalue = [1, 16]"] ;
647 -> 649 ;
650 [label="gini = 0.0\nsamples = 15\nvalue = [0, 15]"] ;
649 -> 650 ;
651 [label="html_ratio <= 0.201\ngini = 0.5\nsamples = 2\nvalue = [1, 1]"] ;
649 -> 651 ;
652 [label="gini = 0.0\nsamples = 1\nvalue = [1, 0]"] ;
651 -> 652 ;
653 [label="gini = 0.0\nsamples = 1\nvalue = [0, 1]"] ;
651 -> 653 ;
654 [label="image_ratio <= 0.182\ngini = 0.469\nsamples = 64\nvalue = [24, 40]"] ;
608 -> 654 ;
655 [label="gini = 0.0\nsamples = 3\nvalue = [3, 0]"] ;
654 -> 655 ;
656 [label="html_ratio <= 0.194\ngini = 0.451\nsamples = 61\nvalue = [21, 40]"] ;
654 -> 656 ;
657 [label="image_ratio <= 0.193\ngini = 0.393\nsamples = 41\nvalue = [11, 30]"] ;
656 -> 657 ;
658 [label="html_ratio <= 0.193\ngini = 0.375\nsamples = 4\nvalue = [3, 1]"] ;
657 -> 658 ;
659 [label="gini = 0.0\nsamples = 3\nvalue = [3, 0]"] ;
658 -> 659 ;
660 [label="gini = 0.0\nsamples = 1\nvalue = [0, 1]"] ;
658 -> 660 ;
661 [label="html_ratio <= 0.188\ngini = 0.339\nsamples = 37\nvalue = [8, 29]"] ;
657 -> 661 ;
662 [label="image_ratio <= 0.229\ngini = 0.48\nsamples = 15\nvalue = [6, 9]"] ;
661 -> 662 ;
663 [label="html_ratio <= 0.186\ngini = 0.32\nsamples = 10\nvalue = [2, 8]"] ;
662 -> 663 ;
664 [label="gini = 0.0\nsamples = 5\nvalue = [0, 5]"] ;
663 -> 664 ;
665 [label="image_ratio <= 0.212\ngini = 0.48\nsamples = 5\nvalue = [2, 3]"] ;
663 -> 665 ;
666 [label="html_ratio <= 0.187\ngini = 0.375\nsamples = 4\nvalue = [1, 3]"] ;
665 -> 666 ;
667 [label="gini = 0.0\nsamples = 1\nvalue = [1, 0]"] ;
666 -> 667 ;
668 [label="gini = 0.0\nsamples = 3\nvalue = [0, 3]"] ;
666 -> 668 ;
669 [label="gini = 0.0\nsamples = 1\nvalue = [1, 0]"] ;
665 -> 669 ;
670 [label="html_ratio <= 0.187\ngini = 0.32\nsamples = 5\nvalue = [4, 1]"] ;
662 -> 670 ;
671 [label="gini = 0.0\nsamples = 3\nvalue = [3, 0]"] ;
670 -> 671 ;
672 [label="html_ratio <= 0.188\ngini = 0.5\nsamples = 2\nvalue = [1, 1]"] ;
670 -> 672 ;
673 [label="gini = 0.0\nsamples = 1\nvalue = [0, 1]"] ;
672 -> 673 ;
674 [label="gini = 0.0\nsamples = 1\nvalue = [1, 0]"] ;
672 -> 674 ;
675 [label="image_ratio <= 0.222\ngini = 0.165\nsamples = 22\nvalue = [2, 20]"] ;
661 -> 675 ;
676 [label="html_ratio <= 0.191\ngini = 0.444\nsamples = 6\nvalue = [2, 4]"] ;
675 -> 676 ;
677 [label="gini = 0.0\nsamples = 3\nvalue = [0, 3]"] ;
676 -> 677 ;
678 [label="image_ratio <= 0.203\ngini = 0.444\nsamples = 3\nvalue = [2, 1]"] ;
676 -> 678 ;
679 [label="gini = 0.0\nsamples = 1\nvalue = [0, 1]"] ;
678 -> 679 ;
680 [label="gini = 0.0\nsamples = 2\nvalue = [2, 0]"] ;
678 -> 680 ;
681 [label="gini = 0.0\nsamples = 16\nvalue = [0, 16]"] ;
675 -> 681 ;
682 [label="image_ratio <= 0.186\ngini = 0.5\nsamples = 20\nvalue = [10, 10]"] ;
656 -> 682 ;
683 [label="gini = 0.0\nsamples = 4\nvalue = [0, 4]"] ;
682 -> 683 ;
684 [label="html_ratio <= 0.197\ngini = 0.469\nsamples = 16\nvalue = [10, 6]"] ;
682 -> 684 ;
685 [label="gini = 0.0\nsamples = 5\nvalue = [5, 0]"] ;
684 -> 685 ;
686 [label="html_ratio <= 0.198\ngini = 0.496\nsamples = 11\nvalue = [5, 6]"] ;
684 -> 686 ;
687 [label="gini = 0.0\nsamples = 3\nvalue = [0, 3]"] ;
686 -> 687 ;
688 [label="html_ratio <= 0.199\ngini = 0.469\nsamples = 8\nvalue = [5, 3]"] ;
686 -> 688 ;
689 [label="gini = 0.0\nsamples = 3\nvalue = [3, 0]"] ;
688 -> 689 ;
690 [label="image_ratio <= 0.204\ngini = 0.48\nsamples = 5\nvalue = [2, 3]"] ;
688 -> 690 ;
691 [label="gini = 0.0\nsamples = 1\nvalue = [1, 0]"] ;
690 -> 691 ;
692 [label="html_ratio <= 0.2\ngini = 0.375\nsamples = 4\nvalue = [1, 3]"] ;
690 -> 692 ;
693 [label="image_ratio <= 0.237\ngini = 0.5\nsamples = 2\nvalue = [1, 1]"] ;
692 -> 693 ;
694 [label="gini = 0.0\nsamples = 1\nvalue = [1, 0]"] ;
693 -> 694 ;
695 [label="gini = 0.0\nsamples = 1\nvalue = [0, 1]"] ;
693 -> 695 ;
696 [label="gini = 0.0\nsamples = 2\nvalue = [0, 2]"] ;
692 -> 696 ;
697 [label="gini = 0.0\nsamples = 1\nvalue = [1, 0]"] ;
607 -> 697 ;
698 [label="image_ratio <= 0.253\ngini = 0.5\nsamples = 72\nvalue = [37, 35]"] ;
444 -> 698 ;
699 [label="gini = 0.0\nsamples = 4\nvalue = [4, 0]"] ;
698 -> 699 ;
700 [label="html_ratio <= 0.182\ngini = 0.5\nsamples = 68\nvalue = [33, 35]"] ;
698 -> 700 ;
701 [label="gini = 0.0\nsamples = 3\nvalue = [0, 3]"] ;
700 -> 701 ;
702 [label="image_ratio <= 0.294\ngini = 0.5\nsamples = 65\nvalue = [33, 32]"] ;
700 -> 702 ;
703 [label="image_ratio <= 0.268\ngini = 0.466\nsamples = 27\nvalue = [17, 10]"] ;
702 -> 703 ;
704 [label="html_ratio <= 0.191\ngini = 0.463\nsamples = 11\nvalue = [4, 7]"] ;
703 -> 704 ;
705 [label="gini = 0.0\nsamples = 4\nvalue = [0, 4]"] ;
704 -> 705 ;
706 [label="html_ratio <= 0.196\ngini = 0.49\nsamples = 7\nvalue = [4, 3]"] ;
704 -> 706 ;
707 [label="gini = 0.0\nsamples = 3\nvalue = [3, 0]"] ;
706 -> 707 ;
708 [label="html_ratio <= 0.199\ngini = 0.375\nsamples = 4\nvalue = [1, 3]"] ;
706 -> 708 ;
709 [label="gini = 0.0\nsamples = 3\nvalue = [0, 3]"] ;
708 -> 709 ;
710 [label="gini = 0.0\nsamples = 1\nvalue = [1, 0]"] ;
708 -> 710 ;
711 [label="html_ratio <= 0.193\ngini = 0.305\nsamples = 16\nvalue = [13, 3]"] ;
703 -> 711 ;
712 [label="html_ratio <= 0.189\ngini = 0.444\nsamples = 9\nvalue = [6, 3]"] ;
711 -> 712 ;
713 [label="gini = 0.0\nsamples = 5\nvalue = [5, 0]"] ;
712 -> 713 ;
714 [label="image_ratio <= 0.29\ngini = 0.375\nsamples = 4\nvalue = [1, 3]"] ;
712 -> 714 ;
715 [label="gini = 0.0\nsamples = 3\nvalue = [0, 3]"] ;
714 -> 715 ;
716 [label="gini = 0.0\nsamples = 1\nvalue = [1, 0]"] ;
714 -> 716 ;
717 [label="gini = 0.0\nsamples = 7\nvalue = [7, 0]"] ;
711 -> 717 ;
718 [label="image_ratio <= 0.342\ngini = 0.488\nsamples = 38\nvalue = [16, 22]"] ;
702 -> 718 ;
719 [label="html_ratio <= 0.194\ngini = 0.403\nsamples = 25\nvalue = [7, 18]"] ;
718 -> 719 ;
720 [label="image_ratio <= 0.309\ngini = 0.484\nsamples = 17\nvalue = [7, 10]"] ;
719 -> 720 ;
721 [label="gini = 0.0\nsamples = 3\nvalue = [0, 3]"] ;
720 -> 721 ;
722 [label="image_ratio <= 0.334\ngini = 0.5\nsamples = 14\nvalue = [7, 7]"] ;
720 -> 722 ;
723 [label="html_ratio <= 0.19\ngini = 0.486\nsamples = 12\nvalue = [7, 5]"] ;
722 -> 723 ;
724 [label="html_ratio <= 0.183\ngini = 0.494\nsamples = 9\nvalue = [4, 5]"] ;
723 -> 724 ;
725 [label="gini = 0.0\nsamples = 1\nvalue = [1, 0]"] ;
724 -> 725 ;
726 [label="image_ratio <= 0.32\ngini = 0.469\nsamples = 8\nvalue = [3, 5]"] ;
724 -> 726 ;
727 [label="gini = 0.0\nsamples = 3\nvalue = [0, 3]"] ;
726 -> 727 ;
728 [label="image_ratio <= 0.325\ngini = 0.48\nsamples = 5\nvalue = [3, 2]"] ;
726 -> 728 ;
729 [label="gini = 0.0\nsamples = 2\nvalue = [2, 0]"] ;
728 -> 729 ;
730 [label="html_ratio <= 0.185\ngini = 0.444\nsamples = 3\nvalue = [1, 2]"] ;
728 -> 730 ;
731 [label="gini = 0.0\nsamples = 1\nvalue = [0, 1]"] ;
730 -> 731 ;
732 [label="html_ratio <= 0.188\ngini = 0.5\nsamples = 2\nvalue = [1, 1]"] ;
730 -> 732 ;
733 [label="gini = 0.0\nsamples = 1\nvalue = [1, 0]"] ;
732 -> 733 ;
734 [label="gini = 0.0\nsamples = 1\nvalue = [0, 1]"] ;
732 -> 734 ;
735 [label="gini = 0.0\nsamples = 3\nvalue = [3, 0]"] ;
723 -> 735 ;
736 [label="gini = 0.0\nsamples = 2\nvalue = [0, 2]"] ;
722 -> 736 ;
737 [label="gini = 0.0\nsamples = 8\nvalue = [0, 8]"] ;
719 -> 737 ;
738 [label="image_ratio <= 0.355\ngini = 0.426\nsamples = 13\nvalue = [9, 4]"] ;
718 -> 738 ;
739 [label="gini = 0.0\nsamples = 5\nvalue = [5, 0]"] ;
738 -> 739 ;
740 [label="html_ratio <= 0.187\ngini = 0.5\nsamples = 8\nvalue = [4, 4]"] ;
738 -> 740 ;
741 [label="gini = 0.0\nsamples = 2\nvalue = [2, 0]"] ;
740 -> 741 ;
742 [label="html_ratio <= 0.189\ngini = 0.444\nsamples = 6\nvalue = [2, 4]"] ;
740 -> 742 ;
743 [label="gini = 0.0\nsamples = 2\nvalue = [0, 2]"] ;
742 -> 743 ;
744 [label="html_ratio <= 0.192\ngini = 0.5\nsamples = 4\nvalue = [2, 2]"] ;
742 -> 744 ;
745 [label="gini = 0.0\nsamples = 2\nvalue = [2, 0]"] ;
744 -> 745 ;
746 [label="gini = 0.0\nsamples = 2\nvalue = [0, 2]"] ;
744 -> 746 ;
747 [label="gini = 0.0\nsamples = 6\nvalue = [0, 6]"] ;
443 -> 747 ;
748 [label="gini = 0.0\nsamples = 8\nvalue = [0, 8]"] ;
442 -> 748 ;
749 [label="image_ratio <= 0.154\ngini = 0.5\nsamples = 3220\nvalue = [1657, 1563]"] ;
101 -> 749 ;
750 [label="image_ratio <= 0.006\ngini = 0.5\nsamples = 2529\nvalue = [1254, 1275]"] ;
749 -> 750 ;
751 [label="image_ratio <= 0.004\ngini = 0.488\nsamples = 371\nvalue = [214, 157]"] ;
750 -> 751 ;
752 [label="html_ratio <= 0.267\ngini = 0.492\nsamples = 349\nvalue = [196, 153]"] ;
751 -> 752 ;
753 [label="image_ratio <= 0.001\ngini = 0.487\nsamples = 320\nvalue = [186, 134]"] ;
752 -> 753 ;
754 [label="html_ratio <= 0.259\ngini = 0.483\nsamples = 306\nvalue = [181, 125]"] ;
753 -> 754 ;
755 [label="html_ratio <= 0.256\ngini = 0.489\nsamples = 268\nvalue = [154, 114]"] ;
754 -> 755 ;
756 [label="html_ratio <= 0.249\ngini = 0.481\nsamples = 253\nvalue = [151, 102]"] ;
755 -> 756 ;
757 [label="html_ratio <= 0.237\ngini = 0.488\nsamples = 217\nvalue = [125, 92]"] ;
756 -> 757 ;
758 [label="html_ratio <= 0.228\ngini = 0.471\nsamples = 153\nvalue = [95, 58]"] ;
757 -> 758 ;
759 [label="html_ratio <= 0.219\ngini = 0.495\nsamples = 109\nvalue = [60, 49]"] ;
758 -> 759 ;
760 [label="html_ratio <= 0.215\ngini = 0.471\nsamples = 71\nvalue = [44, 27]"] ;
759 -> 760 ;
761 [label="html_ratio <= 0.208\ngini = 0.492\nsamples = 55\nvalue = [31, 24]"] ;
760 -> 761 ;
762 [label="html_ratio <= 0.206\ngini = 0.444\nsamples = 33\nvalue = [22, 11]"] ;
761 -> 762 ;
763 [label="html_ratio <= 0.206\ngini = 0.488\nsamples = 26\nvalue = [15, 11]"] ;
762 -> 763 ;
764 [label="html_ratio <= 0.205\ngini = 0.469\nsamples = 24\nvalue = [15, 9]"] ;
763 -> 764 ;
765 [label="html_ratio <= 0.204\ngini = 0.49\nsamples = 21\nvalue = [12, 9]"] ;
764 -> 765 ;
766 [label="html_ratio <= 0.204\ngini = 0.444\nsamples = 15\nvalue = [10, 5]"] ;
765 -> 766 ;
767 [label="html_ratio <= 0.202\ngini = 0.486\nsamples = 12\nvalue = [7, 5]"] ;
766 -> 767 ;
768 [label="html_ratio <= 0.202\ngini = 0.32\nsamples = 5\nvalue = [4, 1]"] ;
767 -> 768 ;
769 [label="html_ratio <= 0.202\ngini = 0.5\nsamples = 2\nvalue = [1, 1]"] ;
768 -> 769 ;
770 [label="gini = 0.0\nsamples = 1\nvalue = [1, 0]"] ;
769 -> 770 ;
771 [label="gini = 0.0\nsamples = 1\nvalue = [0, 1]"] ;
769 -> 771 ;
772 [label="gini = 0.0\nsamples = 3\nvalue = [3, 0]"] ;
768 -> 772 ;
773 [label="html_ratio <= 0.203\ngini = 0.49\nsamples = 7\nvalue = [3, 4]"] ;
767 -> 773 ;
774 [label="gini = 0.0\nsamples = 1\nvalue = [0, 1]"] ;
773 -> 774 ;
775 [label="html_ratio <= 0.203\ngini = 0.5\nsamples = 6\nvalue = [3, 3]"] ;
773 -> 775 ;
776 [label="gini = 0.0\nsamples = 1\nvalue = [1, 0]"] ;
775 -> 776 ;
777 [label="html_ratio <= 0.203\ngini = 0.48\nsamples = 5\nvalue = [2, 3]"] ;
775 -> 777 ;
778 [label="gini = 0.0\nsamples = 1\nvalue = [0, 1]"] ;
777 -> 778 ;
779 [label="html_ratio <= 0.203\ngini = 0.5\nsamples = 4\nvalue = [2, 2]"] ;
777 -> 779 ;
780 [label="gini = 0.0\nsamples = 1\nvalue = [1, 0]"] ;
779 -> 780 ;
781 [label="html_ratio <= 0.203\ngini = 0.444\nsamples = 3\nvalue = [1, 2]"] ;
779 -> 781 ;
782 [label="gini = 0.0\nsamples = 1\nvalue = [0, 1]"] ;
781 -> 782 ;
783 [label="html_ratio <= 0.204\ngini = 0.5\nsamples = 2\nvalue = [1, 1]"] ;
781 -> 783 ;
784 [label="gini = 0.0\nsamples = 1\nvalue = [1, 0]"] ;
783 -> 784 ;
785 [label="gini = 0.0\nsamples = 1\nvalue = [0, 1]"] ;
783 -> 785 ;
786 [label="gini = 0.0\nsamples = 3\nvalue = [3, 0]"] ;
766 -> 786 ;
787 [label="html_ratio <= 0.204\ngini = 0.444\nsamples = 6\nvalue = [2, 4]"] ;
765 -> 787 ;
788 [label="gini = 0.0\nsamples = 3\nvalue = [0, 3]"] ;
787 -> 788 ;
789 [label="html_ratio <= 0.205\ngini = 0.444\nsamples = 3\nvalue = [2, 1]"] ;
787 -> 789 ;
790 [label="gini = 0.0\nsamples = 2\nvalue = [2, 0]"] ;
789 -> 790 ;
791 [label="gini = 0.0\nsamples = 1\nvalue = [0, 1]"] ;
789 -> 791 ;
792 [label="gini = 0.0\nsamples = 3\nvalue = [3, 0]"] ;
764 -> 792 ;
793 [label="gini = 0.0\nsamples = 2\nvalue = [0, 2]"] ;
763 -> 793 ;
794 [label="gini = 0.0\nsamples = 7\nvalue = [7, 0]"] ;
762 -> 794 ;
795 [label="html_ratio <= 0.211\ngini = 0.483\nsamples = 22\nvalue = [9, 13]"] ;
761 -> 795 ;
796 [label="gini = 0.0\nsamples = 6\nvalue = [0, 6]"] ;
795 -> 796 ;
797 [label="html_ratio <= 0.215\ngini = 0.492\nsamples = 16\nvalue = [9, 7]"] ;
795 -> 797 ;
798 [label="html_ratio <= 0.212\ngini = 0.459\nsamples = 14\nvalue = [9, 5]"] ;
797 -> 798 ;
799 [label="html_ratio <= 0.211\ngini = 0.48\nsamples = 5\nvalue = [2, 3]"] ;
798 -> 799 ;
800 [label="gini = 0.0\nsamples = 1\nvalue = [1, 0]"] ;
799 -> 800 ;
801 [label="html_ratio <= 0.212\ngini = 0.375\nsamples = 4\nvalue = [1, 3]"] ;
799 -> 801 ;
802 [label="gini = 0.0\nsamples = 2\nvalue = [0, 2]"] ;
801 -> 802 ;
803 [label="html_ratio <= 0.212\ngini = 0.5\nsamples = 2\nvalue = [1, 1]"] ;
801 -> 803 ;
804 [label="gini = 0.0\nsamples = 1\nvalue = [1, 0]"] ;
803 -> 804 ;
805 [label="gini = 0.0\nsamples = 1\nvalue = [0, 1]"] ;
803 -> 805 ;
806 [label="html_ratio <= 0.214\ngini = 0.346\nsamples = 9\nvalue = [7, 2]"] ;
798 -> 806 ;
807 [label="gini = 0.0\nsamples = 3\nvalue = [3, 0]"] ;
806 -> 807 ;
808 [label="html_ratio <= 0.214\ngini = 0.444\nsamples = 6\nvalue = [4, 2]"] ;
806 -> 808 ;
809 [label="gini = 0.0\nsamples = 1\nvalue = [0, 1]"] ;
808 -> 809 ;
810 [label="html_ratio <= 0.214\ngini = 0.32\nsamples = 5\nvalue = [4, 1]"] ;
808 -> 810 ;
811 [label="gini = 0.0\nsamples = 2\nvalue = [2, 0]"] ;
810 -> 811 ;
812 [label="html_ratio <= 0.214\ngini = 0.444\nsamples = 3\nvalue = [2, 1]"] ;
810 -> 812 ;
813 [label="gini = 0.0\nsamples = 1\nvalue = [0, 1]"] ;
812 -> 813 ;
814 [label="gini = 0.0\nsamples = 2\nvalue = [2, 0]"] ;
812 -> 814 ;
815 [label="gini = 0.0\nsamples = 2\nvalue = [0, 2]"] ;
797 -> 815 ;
816 [label="html_ratio <= 0.218\ngini = 0.305\nsamples = 16\nvalue = [13, 3]"] ;
760 -> 816 ;
817 [label="html_ratio <= 0.217\ngini = 0.165\nsamples = 11\nvalue = [10, 1]"] ;
816 -> 817 ;
818 [label="gini = 0.0\nsamples = 5\nvalue = [5, 0]"] ;
817 -> 818 ;
819 [label="html_ratio <= 0.217\ngini = 0.278\nsamples = 6\nvalue = [5, 1]"] ;
817 -> 819 ;
820 [label="gini = 0.0\nsamples = 1\nvalue = [0, 1]"] ;
819 -> 820 ;
821 [label="gini = 0.0\nsamples = 5\nvalue = [5, 0]"] ;
819 -> 821 ;
822 [label="html_ratio <= 0.219\ngini = 0.48\nsamples = 5\nvalue = [3, 2]"] ;
816 -> 822 ;
823 [label="html_ratio <= 0.219\ngini = 0.444\nsamples = 3\nvalue = [1, 2]"] ;
822 -> 823 ;
824 [label="gini = 0.0\nsamples = 1\nvalue = [0, 1]"] ;
823 -> 824 ;
825 [label="html_ratio <= 0.219\ngini = 0.5\nsamples = 2\nvalue = [1, 1]"] ;
823 -> 825 ;
826 [label="gini = 0.0\nsamples = 1\nvalue = [1, 0]"] ;
825 -> 826 ;
827 [label="gini = 0.0\nsamples = 1\nvalue = [0, 1]"] ;
825 -> 827 ;
828 [label="gini = 0.0\nsamples = 2\nvalue = [2, 0]"] ;
822 -> 828 ;
829 [label="html_ratio <= 0.222\ngini = 0.488\nsamples = 38\nvalue = [16, 22]"] ;
759 -> 829 ;
830 [label="html_ratio <= 0.221\ngini = 0.198\nsamples = 9\nvalue = [1, 8]"] ;
829 -> 830 ;
831 [label="gini = 0.0\nsamples = 5\nvalue = [0, 5]"] ;
830 -> 831 ;
832 [label="html_ratio <= 0.221\ngini = 0.375\nsamples = 4\nvalue = [1, 3]"] ;
830 -> 832 ;
833 [label="gini = 0.0\nsamples = 1\nvalue = [1, 0]"] ;
832 -> 833 ;
834 [label="gini = 0.0\nsamples = 3\nvalue = [0, 3]"] ;
832 -> 834 ;
835 [label="html_ratio <= 0.228\ngini = 0.499\nsamples = 29\nvalue = [15, 14]"] ;
829 -> 835 ;
836 [label="html_ratio <= 0.223\ngini = 0.494\nsamples = 27\nvalue = [15, 12]"] ;
835 -> 836 ;
837 [label="gini = 0.0\nsamples = 2\nvalue = [2, 0]"] ;
836 -> 837 ;
838 [label="html_ratio <= 0.224\ngini = 0.499\nsamples = 25\nvalue = [13, 12]"] ;
836 -> 838 ;
839 [label="gini = 0.0\nsamples = 3\nvalue = [0, 3]"] ;
838 -> 839 ;
840 [label="html_ratio <= 0.224\ngini = 0.483\nsamples = 22\nvalue = [13, 9]"] ;
838 -> 840 ;
841 [label="gini = 0.0\nsamples = 2\nvalue = [2, 0]"] ;
840 -> 841 ;
842 [label="html_ratio <= 0.224\ngini = 0.495\nsamples = 20\nvalue = [11, 9]"] ;
840 -> 842 ;
843 [label="gini = 0.0\nsamples = 2\nvalue = [0, 2]"] ;
842 -> 843 ;
844 [label="html_ratio <= 0.226\ngini = 0.475\nsamples = 18\nvalue = [11, 7]"] ;
842 -> 844 ;
845 [label="html_ratio <= 0.225\ngini = 0.497\nsamples = 13\nvalue = [7, 6]"] ;
844 -> 845 ;
846 [label="html_ratio <= 0.225\ngini = 0.408\nsamples = 7\nvalue = [5, 2]"] ;
845 -> 846 ;
847 [label="html_ratio <= 0.224\ngini = 0.5\nsamples = 4\nvalue = [2, 2]"] ;
846 -> 847 ;
848 [label="gini = 0.0\nsamples = 1\nvalue = [1, 0]"] ;
847 -> 848 ;
849 [label="html_ratio <= 0.225\ngini = 0.444\nsamples = 3\nvalue = [1, 2]"] ;
847 -> 849 ;
850 [label="gini = 0.0\nsamples = 1\nvalue = [0, 1]"] ;
849 -> 850 ;
851 [label="html_ratio <= 0.225\ngini = 0.5\nsamples = 2\nvalue = [1, 1]"] ;
849 -> 851 ;
852 [label="gini = 0.0\nsamples = 1\nvalue = [1, 0]"] ;
851 -> 852 ;
853 [label="gini = 0.0\nsamples = 1\nvalue = [0, 1]"] ;
851 -> 853 ;
854 [label="gini = 0.0\nsamples = 3\nvalue = [3, 0]"] ;
846 -> 854 ;
855 [label="html_ratio <= 0.226\ngini = 0.444\nsamples = 6\nvalue = [2, 4]"] ;
845 -> 855 ;
856 [label="gini = 0.0\nsamples = 2\nvalue = [0, 2]"] ;
855 -> 856 ;
857 [label="html_ratio <= 0.226\ngini = 0.5\nsamples = 4\nvalue = [2, 2]"] ;
855 -> 857 ;
858 [label="gini = 0.0\nsamples = 1\nvalue = [1, 0]"] ;
857 -> 858 ;
859 [label="html_ratio <= 0.226\ngini = 0.444\nsamples = 3\nvalue = [1, 2]"] ;
857 -> 859 ;
860 [label="gini = 0.0\nsamples = 1\nvalue = [0, 1]"] ;
859 -> 860 ;
861 [label="html_ratio <= 0.226\ngini = 0.5\nsamples = 2\nvalue = [1, 1]"] ;
859 -> 861 ;
862 [label="gini = 0.0\nsamples = 1\nvalue = [1, 0]"] ;
861 -> 862 ;
863 [label="gini = 0.0\nsamples = 1\nvalue = [0, 1]"] ;
861 -> 863 ;
864 [label="html_ratio <= 0.227\ngini = 0.32\nsamples = 5\nvalue = [4, 1]"] ;
844 -> 864 ;
865 [label="gini = 0.0\nsamples = 3\nvalue = [3, 0]"] ;
864 -> 865 ;
866 [label="html_ratio <= 0.227\ngini = 0.5\nsamples = 2\nvalue = [1, 1]"] ;
864 -> 866 ;
867 [label="gini = 0.0\nsamples = 1\nvalue = [0, 1]"] ;
866 -> 867 ;
868 [label="gini = 0.0\nsamples = 1\nvalue = [1, 0]"] ;
866 -> 868 ;
869 [label="gini = 0.0\nsamples = 2\nvalue = [0, 2]"] ;
835 -> 869 ;
870 [label="html_ratio <= 0.234\ngini = 0.325\nsamples = 44\nvalue = [35, 9]"] ;
758 -> 870 ;
871 [label="html_ratio <= 0.232\ngini = 0.245\nsamples = 28\nvalue = [24, 4]"] ;
870 -> 871 ;
872 [label="html_ratio <= 0.231\ngini = 0.32\nsamples = 20\nvalue = [16, 4]"] ;
871 -> 872 ;
873 [label="html_ratio <= 0.23\ngini = 0.266\nsamples = 19\nvalue = [16, 3]"] ;
872 -> 873 ;
874 [label="html_ratio <= 0.229\ngini = 0.408\nsamples = 7\nvalue = [5, 2]"] ;
873 -> 874 ;
875 [label="gini = 0.0\nsamples = 4\nvalue = [4, 0]"] ;
874 -> 875 ;
876 [label="html_ratio <= 0.229\ngini = 0.444\nsamples = 3\nvalue = [1, 2]"] ;
874 -> 876 ;
877 [label="gini = 0.0\nsamples = 1\nvalue = [0, 1]"] ;
876 -> 877 ;
878 [label="html_ratio <= 0.23\ngini = 0.5\nsamples = 2\nvalue = [1, 1]"] ;
876 -> 878 ;
879 [label="gini = 0.0\nsamples = 1\nvalue = [1, 0]"] ;
878 -> 879 ;
880 [label="gini = 0.0\nsamples = 1\nvalue = [0, 1]"] ;
878 -> 880 ;
881 [label="html_ratio <= 0.23\ngini = 0.153\nsamples = 12\nvalue = [11, 1]"] ;
873 -> 881 ;
882 [label="gini = 0.0\nsamples = 9\nvalue = [9, 0]"] ;
881 -> 882 ;
883 [label="html_ratio <= 0.231\ngini = 0.444\nsamples = 3\nvalue = [2, 1]"] ;
881 -> 883 ;
884 [label="gini = 0.0\nsamples = 1\nvalue = [0, 1]"] ;
883 -> 884 ;
885 [label="gini = 0.0\nsamples = 2\nvalue = [2, 0]"] ;
883 -> 885 ;
886 [label="gini = 0.0\nsamples = 1\nvalue = [0, 1]"] ;
872 -> 886 ;
887 [label="gini = 0.0\nsamples = 8\nvalue = [8, 0]"] ;
871 -> 887 ;
888 [label="html_ratio <= 0.235\ngini = 0.43\nsamples = 16\nvalue = [11, 5]"] ;
870 -> 888 ;
889 [label="html_ratio <= 0.234\ngini = 0.48\nsamples = 5\nvalue = [2, 3]"] ;
888 -> 889 ;
890 [label="gini = 0.0\nsamples = 1\nvalue = [0, 1]"] ;
889 -> 890 ;
891 [label="html_ratio <= 0.235\ngini = 0.5\nsamples = 4\nvalue = [2, 2]"] ;
889 -> 891 ;
892 [label="gini = 0.0\nsamples = 1\nvalue = [1, 0]"] ;
891 -> 892 ;
893 [label="html_ratio <= 0.235\ngini = 0.444\nsamples = 3\nvalue = [1, 2]"] ;
891 -> 893 ;
894 [label="gini = 0.0\nsamples = 1\nvalue = [0, 1]"] ;
893 -> 894 ;
895 [label="html_ratio <= 0.235\ngini = 0.5\nsamples = 2\nvalue = [1, 1]"] ;
893 -> 895 ;
896 [label="gini = 0.0\nsamples = 1\nvalue = [1, 0]"] ;
895 -> 896 ;
897 [label="gini = 0.0\nsamples = 1\nvalue = [0, 1]"] ;
895 -> 897 ;
898 [label="html_ratio <= 0.235\ngini = 0.298\nsamples = 11\nvalue = [9, 2]"] ;
888 -> 898 ;
899 [label="gini = 0.0\nsamples = 3\nvalue = [3, 0]"] ;
898 -> 899 ;
900 [label="html_ratio <= 0.235\ngini = 0.375\nsamples = 8\nvalue = [6, 2]"] ;
898 -> 900 ;
901 [label="gini = 0.0\nsamples = 1\nvalue = [0, 1]"] ;
900 -> 901 ;
902 [label="html_ratio <= 0.236\ngini = 0.245\nsamples = 7\nvalue = [6, 1]"] ;
900 -> 902 ;
903 [label="gini = 0.0\nsamples = 4\nvalue = [4, 0]"] ;
902 -> 903 ;
904 [label="html_ratio <= 0.236\ngini = 0.444\nsamples = 3\nvalue = [2, 1]"] ;
902 -> 904 ;
905 [label="gini = 0.0\nsamples = 1\nvalue = [0, 1]"] ;
904 -> 905 ;
906 [label="gini = 0.0\nsamples = 2\nvalue = [2, 0]"] ;
904 -> 906 ;
907 [label="html_ratio <= 0.242\ngini = 0.498\nsamples = 64\nvalue = [30, 34]"] ;
757 -> 907 ;
908 [label="html_ratio <= 0.241\ngini = 0.459\nsamples = 28\nvalue = [10, 18]"] ;
907 -> 908 ;
909 [label="html_ratio <= 0.241\ngini = 0.495\nsamples = 20\nvalue = [9, 11]"] ;
908 -> 909 ;
910 [label="html_ratio <= 0.24\ngini = 0.475\nsamples = 18\nvalue = [7, 11]"] ;
909 -> 910 ;
911 [label="html_ratio <= 0.239\ngini = 0.498\nsamples = 15\nvalue = [7, 8]"] ;
910 -> 911 ;
912 [label="html_ratio <= 0.238\ngini = 0.444\nsamples = 9\nvalue = [3, 6]"] ;
911 -> 912 ;
913 [label="html_ratio <= 0.237\ngini = 0.5\nsamples = 6\nvalue = [3, 3]"] ;
912 -> 913 ;
914 [label="gini = 0.0\nsamples = 1\nvalue = [0, 1]"] ;
913 -> 914 ;
915 [label="html_ratio <= 0.237\ngini = 0.48\nsamples = 5\nvalue = [3, 2]"] ;
913 -> 915 ;
916 [label="gini = 0.0\nsamples = 1\nvalue = [1, 0]"] ;
915 -> 916 ;
917 [label="html_ratio <= 0.237\ngini = 0.5\nsamples = 4\nvalue = [2, 2]"] ;
915 -> 917 ;
918 [label="gini = 0.0\nsamples = 1\nvalue = [0, 1]"] ;
917 -> 918 ;
919 [label="html_ratio <= 0.237\ngini = 0.444\nsamples = 3\nvalue = [2, 1]"] ;
917 -> 919 ;
920 [label="gini = 0.0\nsamples = 1\nvalue = [1, 0]"] ;
919 -> 920 ;
921 [label="html_ratio <= 0.238\ngini = 0.5\nsamples = 2\nvalue = [1, 1]"] ;
919 -> 921 ;
922 [label="gini = 0.0\nsamples = 1\nvalue = [0, 1]"] ;
921 -> 922 ;
923 [label="gini = 0.0\nsamples = 1\nvalue = [1, 0]"] ;
921 -> 923 ;
924 [label="gini = 0.0\nsamples = 3\nvalue = [0, 3]"] ;
912 -> 924 ;
925 [label="html_ratio <= 0.24\ngini = 0.444\nsamples = 6\nvalue = [4, 2]"] ;
911 -> 925 ;
926 [label="gini = 0.0\nsamples = 3\nvalue = [3, 0]"] ;
925 -> 926 ;
927 [label="html_ratio <= 0.24\ngini = 0.444\nsamples = 3\nvalue = [1, 2]"] ;
925 -> 927 ;
928 [label="gini = 0.0\nsamples = 2\nvalue = [0, 2]"] ;
927 -> 928 ;
929 [label="gini = 0.0\nsamples = 1\nvalue = [1, 0]"] ;
927 -> 929 ;
930 [label="gini = 0.0\nsamples = 3\nvalue = [0, 3]"] ;
910 -> 930 ;
931 [label="gini = 0.0\nsamples = 2\nvalue = [2, 0]"] ;
909 -> 931 ;
932 [label="html_ratio <= 0.242\ngini = 0.219\nsamples = 8\nvalue = [1, 7]"] ;
908 -> 932 ;
933 [label="gini = 0.0\nsamples = 5\nvalue = [0, 5]"] ;
932 -> 933 ;
934 [label="html_ratio <= 0.242\ngini = 0.444\nsamples = 3\nvalue = [1, 2]"] ;
932 -> 934 ;
935 [label="gini = 0.0\nsamples = 1\nvalue = [1, 0]"] ;
934 -> 935 ;
936 [label="gini = 0.0\nsamples = 2\nvalue = [0, 2]"] ;
934 -> 936 ;
937 [label="image_ratio <= -0.5\ngini = 0.494\nsamples = 36\nvalue = [20, 16]"] ;
907 -> 937 ;
938 [label="html_ratio <= 0.248\ngini = 0.484\nsamples = 34\nvalue = [20, 14]"] ;
937 -> 938 ;
939 [label="html_ratio <= 0.248\ngini = 0.469\nsamples = 32\nvalue = [20, 12]"] ;
938 -> 939 ;
940 [label="html_ratio <= 0.247\ngini = 0.48\nsamples = 30\nvalue = [18, 12]"] ;
939 -> 940 ;
941 [label="html_ratio <= 0.246\ngini = 0.471\nsamples = 29\nvalue = [18, 11]"] ;
940 -> 941 ;
942 [label="html_ratio <= 0.246\ngini = 0.491\nsamples = 23\nvalue = [13, 10]"] ;
941 -> 942 ;
943 [label="html_ratio <= 0.245\ngini = 0.455\nsamples = 20\nvalue = [13, 7]"] ;
942 -> 943 ;
944 [label="html_ratio <= 0.245\ngini = 0.492\nsamples = 16\nvalue = [9, 7]"] ;
943 -> 944 ;
945 [label="html_ratio <= 0.245\ngini = 0.48\nsamples = 15\nvalue = [9, 6]"] ;
944 -> 945 ;
946 [label="html_ratio <= 0.244\ngini = 0.497\nsamples = 13\nvalue = [7, 6]"] ;
945 -> 946 ;
947 [label="html_ratio <= 0.243\ngini = 0.444\nsamples = 9\nvalue = [6, 3]"] ;
946 -> 947 ;
948 [label="html_ratio <= 0.243\ngini = 0.5\nsamples = 6\nvalue = [3, 3]"] ;
947 -> 948 ;
949 [label="gini = 0.0\nsamples = 1\nvalue = [1, 0]"] ;
948 -> 949 ;
950 [label="html_ratio <= 0.243\ngini = 0.48\nsamples = 5\nvalue = [2, 3]"] ;
948 -> 950 ;
951 [label="gini = 0.0\nsamples = 1\nvalue = [0, 1]"] ;
950 -> 951 ;
952 [label="html_ratio <= 0.243\ngini = 0.5\nsamples = 4\nvalue = [2, 2]"] ;
950 -> 952 ;
953 [label="gini = 0.0\nsamples = 1\nvalue = [1, 0]"] ;
952 -> 953 ;
954 [label="html_ratio <= 0.243\ngini = 0.444\nsamples = 3\nvalue = [1, 2]"] ;
952 -> 954 ;
955 [label="gini = 0.0\nsamples = 1\nvalue = [0, 1]"] ;
954 -> 955 ;
956 [label="html_ratio <= 0.243\ngini = 0.5\nsamples = 2\nvalue = [1, 1]"] ;
954 -> 956 ;
957 [label="gini = 0.0\nsamples = 1\nvalue = [1, 0]"] ;
956 -> 957 ;
958 [label="gini = 0.0\nsamples = 1\nvalue = [0, 1]"] ;
956 -> 958 ;
959 [label="gini = 0.0\nsamples = 3\nvalue = [3, 0]"] ;
947 -> 959 ;
960 [label="html_ratio <= 0.244\ngini = 0.375\nsamples = 4\nvalue = [1, 3]"] ;
946 -> 960 ;
961 [label="gini = 0.0\nsamples = 2\nvalue = [0, 2]"] ;
960 -> 961 ;
962 [label="html_ratio <= 0.244\ngini = 0.5\nsamples = 2\nvalue = [1, 1]"] ;
960 -> 962 ;
963 [label="gini = 0.0\nsamples = 1\nvalue = [1, 0]"] ;
962 -> 963 ;
964 [label="gini = 0.0\nsamples = 1\nvalue = [0, 1]"] ;
962 -> 964 ;
965 [label="gini = 0.0\nsamples = 2\nvalue = [2, 0]"] ;
945 -> 965 ;
966 [label="gini = 0.0\nsamples = 1\nvalue = [0, 1]"] ;
944 -> 966 ;
967 [label="gini = 0.0\nsamples = 4\nvalue = [4, 0]"] ;
943 -> 967 ;
968 [label="gini = 0.0\nsamples = 3\nvalue = [0, 3]"] ;
942 -> 968 ;
969 [label="html_ratio <= 0.247\ngini = 0.278\nsamples = 6\nvalue = [5, 1]"] ;
941 -> 969 ;
970 [label="gini = 0.0\nsamples = 3\nvalue = [3, 0]"] ;
969 -> 970 ;
971 [label="html_ratio <= 0.247\ngini = 0.444\nsamples = 3\nvalue = [2, 1]"] ;
969 -> 971 ;
972 [label="gini = 0.0\nsamples = 1\nvalue = [0, 1]"] ;
971 -> 972 ;
973 [label="gini = 0.0\nsamples = 2\nvalue = [2, 0]"] ;
971 -> 973 ;
974 [label="gini = 0.0\nsamples = 1\nvalue = [0, 1]"] ;
940 -> 974 ;
975 [label="gini = 0.0\nsamples = 2\nvalue = [2, 0]"] ;
939 -> 975 ;
976 [label="gini = 0.0\nsamples = 2\nvalue = [0, 2]"] ;
938 -> 976 ;
977 [label="gini = 0.0\nsamples = 2\nvalue = [0, 2]"] ;
937 -> 977 ;
978 [label="html_ratio <= 0.251\ngini = 0.401\nsamples = 36\nvalue = [26, 10]"] ;
756 -> 978 ;
979 [label="html_ratio <= 0.25\ngini = 0.153\nsamples = 12\nvalue = [11, 1]"] ;
978 -> 979 ;
980 [label="gini = 0.0\nsamples = 6\nvalue = [6, 0]"] ;
979 -> 980 ;
981 [label="html_ratio <= 0.251\ngini = 0.278\nsamples = 6\nvalue = [5, 1]"] ;
979 -> 981 ;
982 [label="gini = 0.0\nsamples = 1\nvalue = [0, 1]"] ;
981 -> 982 ;
983 [label="gini = 0.0\nsamples = 5\nvalue = [5, 0]"] ;
981 -> 983 ;
984 [label="html_ratio <= 0.252\ngini = 0.469\nsamples = 24\nvalue = [15, 9]"] ;
978 -> 984 ;
985 [label="gini = 0.0\nsamples = 3\nvalue = [0, 3]"] ;
984 -> 985 ;
986 [label="html_ratio <= 0.252\ngini = 0.408\nsamples = 21\nvalue = [15, 6]"] ;
984 -> 986 ;
987 [label="gini = 0.0\nsamples = 3\nvalue = [3, 0]"] ;
986 -> 987 ;
988 [label="html_ratio <= 0.254\ngini = 0.444\nsamples = 18\nvalue = [12, 6]"] ;
986 -> 988 ;
989 [label="html_ratio <= 0.253\ngini = 0.49\nsamples = 7\nvalue = [3, 4]"] ;
988 -> 989 ;
990 [label="html_ratio <= 0.253\ngini = 0.48\nsamples = 5\nvalue = [3, 2]"] ;
989 -> 990 ;
991 [label="html_ratio <= 0.253\ngini = 0.444\nsamples = 3\nvalue = [1, 2]"] ;
990 -> 991 ;
992 [label="gini = 0.0\nsamples = 1\nvalue = [0, 1]"] ;
991 -> 992 ;
993 [label="html_ratio <= 0.253\ngini = 0.5\nsamples = 2\nvalue = [1, 1]"] ;
991 -> 993 ;
994 [label="gini = 0.0\nsamples = 1\nvalue = [1, 0]"] ;
993 -> 994 ;
995 [label="gini = 0.0\nsamples = 1\nvalue = [0, 1]"] ;
993 -> 995 ;
996 [label="gini = 0.0\nsamples = 2\nvalue = [2, 0]"] ;
990 -> 996 ;
997 [label="gini = 0.0\nsamples = 2\nvalue = [0, 2]"] ;
989 -> 997 ;
998 [label="html_ratio <= 0.255\ngini = 0.298\nsamples = 11\nvalue = [9, 2]"] ;
988 -> 998 ;
999 [label="gini = 0.0\nsamples = 4\nvalue = [4, 0]"] ;
998 -> 999 ;
1000 [label="html_ratio <= 0.255\ngini = 0.408\nsamples = 7\nvalue = [5, 2]"] ;
998 -> 1000 ;
1001 [label="gini = 0.0\nsamples = 1\nvalue = [0, 1]"] ;
1000 -> 1001 ;
1002 [label="html_ratio <= 0.256\ngini = 0.278\nsamples = 6\nvalue = [5, 1]"] ;
1000 -> 1002 ;
1003 [label="html_ratio <= 0.255\ngini = 0.444\nsamples = 3\nvalue = [2, 1]"] ;
1002 -> 1003 ;
1004 [label="gini = 0.0\nsamples = 2\nvalue = [2, 0]"] ;
1003 -> 1004 ;
1005 [label="gini = 0.0\nsamples = 1\nvalue = [0, 1]"] ;
1003 -> 1005 ;
1006 [label="gini = 0.0\nsamples = 3\nvalue = [3, 0]"] ;
1002 -> 1006 ;
1007 [label="html_ratio <= 0.258\ngini = 0.32\nsamples = 15\nvalue = [3, 12]"] ;
755 -> 1007 ;
1008 [label="html_ratio <= 0.258\ngini = 0.42\nsamples = 10\nvalue = [3, 7]"] ;
1007 -> 1008 ;
1009 [label="html_ratio <= 0.257\ngini = 0.245\nsamples = 7\nvalue = [1, 6]"] ;
1008 -> 1009 ;
1010 [label="gini = 0.0\nsamples = 3\nvalue = [0, 3]"] ;
1009 -> 1010 ;
1011 [label="html_ratio <= 0.257\ngini = 0.375\nsamples = 4\nvalue = [1, 3]"] ;
1009 -> 1011 ;
1012 [label="gini = 0.0\nsamples = 1\nvalue = [1, 0]"] ;
1011 -> 1012 ;
1013 [label="gini = 0.0\nsamples = 3\nvalue = [0, 3]"] ;
1011 -> 1013 ;
1014 [label="html_ratio <= 0.258\ngini = 0.444\nsamples = 3\nvalue = [2, 1]"] ;
1008 -> 1014 ;
1015 [label="gini = 0.0\nsamples = 1\nvalue = [1, 0]"] ;
1014 -> 1015 ;
1016 [label="html_ratio <= 0.258\ngini = 0.5\nsamples = 2\nvalue = [1, 1]"] ;
1014 -> 1016 ;
1017 [label="gini = 0.0\nsamples = 1\nvalue = [0, 1]"] ;
1016 -> 1017 ;
1018 [label="gini = 0.0\nsamples = 1\nvalue = [1, 0]"] ;
1016 -> 1018 ;
1019 [label="gini = 0.0\nsamples = 5\nvalue = [0, 5]"] ;
1007 -> 1019 ;
1020 [label="html_ratio <= 0.266\ngini = 0.411\nsamples = 38\nvalue = [27, 11]"] ;
754 -> 1020 ;
1021 [label="html_ratio <= 0.259\ngini = 0.346\nsamples = 27\nvalue = [21, 6]"] ;
1020 -> 1021 ;
1022 [label="gini = 0.0\nsamples = 4\nvalue = [4, 0]"] ;
1021 -> 1022 ;
1023 [label="html_ratio <= 0.26\ngini = 0.386\nsamples = 23\nvalue = [17, 6]"] ;
1021 -> 1023 ;
1024 [label="gini = 0.0\nsamples = 2\nvalue = [0, 2]"] ;
1023 -> 1024 ;
1025 [label="html_ratio <= 0.263\ngini = 0.308\nsamples = 21\nvalue = [17, 4]"] ;
1023 -> 1025 ;
1026 [label="html_ratio <= 0.261\ngini = 0.18\nsamples = 10\nvalue = [9, 1]"] ;
1025 -> 1026 ;
1027 [label="html_ratio <= 0.261\ngini = 0.375\nsamples = 4\nvalue = [3, 1]"] ;
1026 -> 1027 ;
1028 [label="gini = 0.0\nsamples = 3\nvalue = [3, 0]"] ;
1027 -> 1028 ;
1029 [label="gini = 0.0\nsamples = 1\nvalue = [0, 1]"] ;
1027 -> 1029 ;
1030 [label="gini = 0.0\nsamples = 6\nvalue = [6, 0]"] ;
1026 -> 1030 ;
1031 [label="html_ratio <= 0.263\ngini = 0.397\nsamples = 11\nvalue = [8, 3]"] ;
1025 -> 1031 ;
1032 [label="gini = 0.0\nsamples = 1\nvalue = [0, 1]"] ;
1031 -> 1032 ;
1033 [label="html_ratio <= 0.265\ngini = 0.32\nsamples = 10\nvalue = [8, 2]"] ;
1031 -> 1033 ;
1034 [label="html_ratio <= 0.265\ngini = 0.408\nsamples = 7\nvalue = [5, 2]"] ;
1033 -> 1034 ;
1035 [label="html_ratio <= 0.264\ngini = 0.278\nsamples = 6\nvalue = [5, 1]"] ;
1034 -> 1035 ;
1036 [label="html_ratio <= 0.263\ngini = 0.444\nsamples = 3\nvalue = [2, 1]"] ;
1035 -> 1036 ;
1037 [label="gini = 0.0\nsamples = 2\nvalue = [2, 0]"] ;
1036 -> 1037 ;
1038 [label="gini = 0.0\nsamples = 1\nvalue = [0, 1]"] ;
1036 -> 1038 ;
1039 [label="gini = 0.0\nsamples = 3\nvalue = [3, 0]"] ;
1035 -> 1039 ;
1040 [label="gini = 0.0\nsamples = 1\nvalue = [0, 1]"] ;
1034 -> 1040 ;
1041 [label="gini = 0.0\nsamples = 3\nvalue = [3, 0]"] ;
1033 -> 1041 ;
1042 [label="html_ratio <= 0.266\ngini = 0.496\nsamples = 11\nvalue = [6, 5]"] ;
1020 -> 1042 ;
1043 [label="gini = 0.0\nsamples = 2\nvalue = [0, 2]"] ;
1042 -> 1043 ;
1044 [label="html_ratio <= 0.266\ngini = 0.444\nsamples = 9\nvalue = [6, 3]"] ;
1042 -> 1044 ;
1045 [label="gini = 0.0\nsamples = 2\nvalue = [2, 0]"] ;
1044 -> 1045 ;
1046 [label="html_ratio <= 0.266\ngini = 0.49\nsamples = 7\nvalue = [4, 3]"] ;
1044 -> 1046 ;
1047 [label="gini = 0.0\nsamples = 1\nvalue = [0, 1]"] ;
1046 -> 1047 ;
1048 [label="html_ratio <= 0.266\ngini = 0.444\nsamples = 6\nvalue = [4, 2]"] ;
1046 -> 1048 ;
1049 [label="gini = 0.0\nsamples = 2\nvalue = [2, 0]"] ;
1048 -> 1049 ;
1050 [label="html_ratio <= 0.267\ngini = 0.5\nsamples = 4\nvalue = [2, 2]"] ;
1048 -> 1050 ;
1051 [label="gini = 0.0\nsamples = 1\nvalue = [0, 1]"] ;
1050 -> 1051 ;
1052 [label="html_ratio <= 0.267\ngini = 0.444\nsamples = 3\nvalue = [2, 1]"] ;
1050 -> 1052 ;
1053 [label="gini = 0.0\nsamples = 1\nvalue = [1, 0]"] ;
1052 -> 1053 ;
1054 [label="html_ratio <= 0.267\ngini = 0.5\nsamples = 2\nvalue = [1, 1]"] ;
1052 -> 1054 ;
1055 [label="gini = 0.0\nsamples = 1\nvalue = [0, 1]"] ;
1054 -> 1055 ;
1056 [label="gini = 0.0\nsamples = 1\nvalue = [1, 0]"] ;
1054 -> 1056 ;
1057 [label="html_ratio <= 0.219\ngini = 0.459\nsamples = 14\nvalue = [5, 9]"] ;
753 -> 1057 ;
1058 [label="gini = 0.0\nsamples = 2\nvalue = [2, 0]"] ;
1057 -> 1058 ;
1059 [label="image_ratio <= 0.003\ngini = 0.375\nsamples = 12\nvalue = [3, 9]"] ;
1057 -> 1059 ;
1060 [label="gini = 0.0\nsamples = 7\nvalue = [0, 7]"] ;
1059 -> 1060 ;
1061 [label="image_ratio <= 0.003\ngini = 0.48\nsamples = 5\nvalue = [3, 2]"] ;
1059 -> 1061 ;
1062 [label="image_ratio <= 0.003\ngini = 0.375\nsamples = 4\nvalue = [3, 1]"] ;
1061 -> 1062 ;
1063 [label="html_ratio <= 0.259\ngini = 0.5\nsamples = 2\nvalue = [1, 1]"] ;
1062 -> 1063 ;
1064 [label="gini = 0.0\nsamples = 1\nvalue = [0, 1]"] ;
1063 -> 1064 ;
1065 [label="gini = 0.0\nsamples = 1\nvalue = [1, 0]"] ;
1063 -> 1065 ;
1066 [label="gini = 0.0\nsamples = 2\nvalue = [2, 0]"] ;
1062 -> 1066 ;
1067 [label="gini = 0.0\nsamples = 1\nvalue = [0, 1]"] ;
1061 -> 1067 ;
1068 [label="html_ratio <= 0.27\ngini = 0.452\nsamples = 29\nvalue = [10, 19]"] ;
752 -> 1068 ;
1069 [label="html_ratio <= 0.269\ngini = 0.375\nsamples = 20\nvalue = [5, 15]"] ;
1068 -> 1069 ;
1070 [label="html_ratio <= 0.268\ngini = 0.459\nsamples = 14\nvalue = [5, 9]"] ;
1069 -> 1070 ;
1071 [label="html_ratio <= 0.268\ngini = 0.375\nsamples = 12\nvalue = [3, 9]"] ;
1070 -> 1071 ;
1072 [label="html_ratio <= 0.267\ngini = 0.49\nsamples = 7\nvalue = [3, 4]"] ;
1071 -> 1072 ;
1073 [label="html_ratio <= 0.267\ngini = 0.32\nsamples = 5\nvalue = [1, 4]"] ;
1072 -> 1073 ;
1074 [label="gini = 0.0\nsamples = 2\nvalue = [0, 2]"] ;
1073 -> 1074 ;
1075 [label="html_ratio <= 0.267\ngini = 0.444\nsamples = 3\nvalue = [1, 2]"] ;
1073 -> 1075 ;
1076 [label="gini = 0.0\nsamples = 1\nvalue = [1, 0]"] ;
1075 -> 1076 ;
1077 [label="gini = 0.0\nsamples = 2\nvalue = [0, 2]"] ;
1075 -> 1077 ;
1078 [label="gini = 0.0\nsamples = 2\nvalue = [2, 0]"] ;
1072 -> 1078 ;
1079 [label="gini = 0.0\nsamples = 5\nvalue = [0, 5]"] ;
1071 -> 1079 ;
1080 [label="gini = 0.0\nsamples = 2\nvalue = [2, 0]"] ;
1070 -> 1080 ;
1081 [label="gini = 0.0\nsamples = 6\nvalue = [0, 6]"] ;
1069 -> 1081 ;
1082 [label="html_ratio <= 0.27\ngini = 0.494\nsamples = 9\nvalue = [5, 4]"] ;
1068 -> 1082 ;
1083 [label="gini = 0.0\nsamples = 3\nvalue = [3, 0]"] ;
1082 -> 1083 ;
1084 [label="html_ratio <= 0.27\ngini = 0.444\nsamples = 6\nvalue = [2, 4]"] ;
1082 -> 1084 ;
1085 [label="html_ratio <= 0.27\ngini = 0.32\nsamples = 5\nvalue = [1, 4]"] ;
1084 -> 1085 ;
1086 [label="html_ratio <= 0.27\ngini = 0.5\nsamples = 2\nvalue = [1, 1]"] ;
1085 -> 1086 ;
1087 [label="gini = 0.0\nsamples = 1\nvalue = [0, 1]"] ;
1086 -> 1087 ;
1088 [label="gini = 0.0\nsamples = 1\nvalue = [1, 0]"] ;
1086 -> 1088 ;
1089 [label="gini = 0.0\nsamples = 3\nvalue = [0, 3]"] ;
1085 -> 1089 ;
1090 [label="gini = 0.0\nsamples = 1\nvalue = [1, 0]"] ;
1084 -> 1090 ;
1091 [label="image_ratio <= 0.005\ngini = 0.298\nsamples = 22\nvalue = [18, 4]"] ;
751 -> 1091 ;
1092 [label="gini = 0.0\nsamples = 10\nvalue = [10, 0]"] ;
1091 -> 1092 ;
1093 [label="image_ratio <= 0.005\ngini = 0.444\nsamples = 12\nvalue = [8, 4]"] ;
1091 -> 1093 ;
1094 [label="gini = 0.0\nsamples = 2\nvalue = [0, 2]"] ;
1093 -> 1094 ;
1095 [label="html_ratio <= 0.252\ngini = 0.32\nsamples = 10\nvalue = [8, 2]"] ;
1093 -> 1095 ;
1096 [label="image_ratio <= 0.005\ngini = 0.5\nsamples = 4\nvalue = [2, 2]"] ;
1095 -> 1096 ;
1097 [label="gini = 0.0\nsamples = 2\nvalue = [2, 0]"] ;
1096 -> 1097 ;
1098 [label="gini = 0.0\nsamples = 2\nvalue = [0, 2]"] ;
1096 -> 1098 ;
1099 [label="gini = 0.0\nsamples = 6\nvalue = [6, 0]"] ;
1095 -> 1099 ;
1100 [label="html_ratio <= 0.266\ngini = 0.499\nsamples = 2158\nvalue = [1040, 1118]"] ;
750 -> 1100 ;
1101 [label="image_ratio <= 0.045\ngini = 0.5\nsamples = 2023\nvalue = [985, 1038]"] ;
1100 -> 1101 ;
1102 [label="image_ratio <= 0.045\ngini = 0.499\nsamples = 773\nvalue = [403, 370]"] ;
1101 -> 1102 ;
1103 [label="html_ratio <= 0.206\ngini = 0.5\nsamples = 751\nvalue = [386, 365]"] ;
1102 -> 1103 ;
1104 [label="html_ratio <= 0.203\ngini = 0.388\nsamples = 19\nvalue = [14, 5]"] ;
1103 -> 1104 ;
1105 [label="html_ratio <= 0.202\ngini = 0.444\nsamples = 3\nvalue = [1, 2]"] ;
1104 -> 1105 ;
1106 [label="gini = 0.0\nsamples = 1\nvalue = [0, 1]"] ;
1105 -> 1106 ;
1107 [label="html_ratio <= 0.203\ngini = 0.5\nsamples = 2\nvalue = [1, 1]"] ;
1105 -> 1107 ;
1108 [label="gini = 0.0\nsamples = 1\nvalue = [1, 0]"] ;
1107 -> 1108 ;
1109 [label="gini = 0.0\nsamples = 1\nvalue = [0, 1]"] ;
1107 -> 1109 ;
1110 [label="image_ratio <= 0.037\ngini = 0.305\nsamples = 16\nvalue = [13, 3]"] ;
1104 -> 1110 ;
1111 [label="image_ratio <= 0.017\ngini = 0.165\nsamples = 11\nvalue = [10, 1]"] ;
1110 -> 1111 ;
1112 [label="image_ratio <= 0.015\ngini = 0.444\nsamples = 3\nvalue = [2, 1]"] ;
1111 -> 1112 ;
1113 [label="gini = 0.0\nsamples = 2\nvalue = [2, 0]"] ;
1112 -> 1113 ;
1114 [label="gini = 0.0\nsamples = 1\nvalue = [0, 1]"] ;
1112 -> 1114 ;
1115 [label="gini = 0.0\nsamples = 8\nvalue = [8, 0]"] ;
1111 -> 1115 ;
1116 [label="image_ratio <= 0.038\ngini = 0.48\nsamples = 5\nvalue = [3, 2]"] ;
1110 -> 1116 ;
1117 [label="gini = 0.0\nsamples = 1\nvalue = [0, 1]"] ;
1116 -> 1117 ;
1118 [label="image_ratio <= 0.04\ngini = 0.375\nsamples = 4\nvalue = [3, 1]"] ;
1116 -> 1118 ;
1119 [label="gini = 0.0\nsamples = 2\nvalue = [2, 0]"] ;
1118 -> 1119 ;
1120 [label="image_ratio <= 0.042\ngini = 0.5\nsamples = 2\nvalue = [1, 1]"] ;
1118 -> 1120 ;
1121 [label="gini = 0.0\nsamples = 1\nvalue = [0, 1]"] ;
1120 -> 1121 ;
1122 [label="gini = 0.0\nsamples = 1\nvalue = [1, 0]"] ;
1120 -> 1122 ;
1123 [label="html_ratio <= 0.266\ngini = 0.5\nsamples = 732\nvalue = [372, 360]"] ;
1103 -> 1123 ;
1124 [label="image_ratio <= 0.007\ngini = 0.5\nsamples = 728\nvalue = [368, 360]"] ;
1123 -> 1124 ;
1125 [label="image_ratio <= 0.007\ngini = 0.42\nsamples = 20\nvalue = [6, 14]"] ;
1124 -> 1125 ;
1126 [label="image_ratio <= 0.006\ngini = 0.497\nsamples = 13\nvalue = [6, 7]"] ;
1125 -> 1126 ;
1127 [label="image_ratio <= 0.006\ngini = 0.346\nsamples = 9\nvalue = [2, 7]"] ;
1126 -> 1127 ;
1128 [label="html_ratio <= 0.236\ngini = 0.444\nsamples = 3\nvalue = [2, 1]"] ;
1127 -> 1128 ;
1129 [label="gini = 0.0\nsamples = 1\nvalue = [0, 1]"] ;
1128 -> 1129 ;
1130 [label="gini = 0.0\nsamples = 2\nvalue = [2, 0]"] ;
1128 -> 1130 ;
1131 [label="gini = 0.0\nsamples = 6\nvalue = [0, 6]"] ;
1127 -> 1131 ;
1132 [label="gini = 0.0\nsamples = 4\nvalue = [4, 0]"] ;
1126 -> 1132 ;
1133 [label="gini = 0.0\nsamples = 7\nvalue = [0, 7]"] ;
1125 -> 1133 ;
1134 [label="image_ratio <= 0.045\ngini = 0.5\nsamples = 708\nvalue = [362, 346]"] ;
1124 -> 1134 ;
1135 [label="html_ratio <= 0.251\ngini = 0.5\nsamples = 705\nvalue = [362, 343]"] ;
1134 -> 1135 ;
1136 [label="html_ratio <= 0.249\ngini = 0.497\nsamples = 476\nvalue = [255, 221]"] ;
1135 -> 1136 ;
1137 [label="html_ratio <= 0.249\ngini = 0.499\nsamples = 450\nvalue = [236, 214]"] ;
1136 -> 1137 ;
1138 [label="html_ratio <= 0.248\ngini = 0.498\nsamples = 440\nvalue = [234, 206]"] ;
1137 -> 1138 ;
1139 [label="image_ratio <= 0.009\ngini = 0.499\nsamples = 419\nvalue = [218, 201]"] ;
1138 -> 1139 ;
1140 [label="html_ratio <= 0.225\ngini = 0.219\nsamples = 8\nvalue = [7, 1]"] ;
1139 -> 1140 ;
1141 [label="image_ratio <= 0.007\ngini = 0.444\nsamples = 3\nvalue = [2, 1]"] ;
1140 -> 1141 ;
1142 [label="gini = 0.0\nsamples = 2\nvalue = [2, 0]"] ;
1141 -> 1142 ;
1143 [label="gini = 0.0\nsamples = 1\nvalue = [0, 1]"] ;
1141 -> 1143 ;
1144 [label="gini = 0.0\nsamples = 5\nvalue = [5, 0]"] ;
1140 -> 1144 ;
1145 [label="image_ratio <= 0.037\ngini = 0.5\nsamples = 411\nvalue = [211, 200]"] ;
1139 -> 1145 ;
1146 [label="html_ratio <= 0.207\ngini = 0.5\nsamples = 329\nvalue = [161, 168]"] ;
1145 -> 1146 ;
1147 [label="image_ratio <= 0.029\ngini = 0.245\nsamples = 7\nvalue = [1, 6]"] ;
1146 -> 1147 ;
1148 [label="gini = 0.0\nsamples = 4\nvalue = [0, 4]"] ;
1147 -> 1148 ;
1149 [label="image_ratio <= 0.031\ngini = 0.444\nsamples = 3\nvalue = [1, 2]"] ;
1147 -> 1149 ;
1150 [label="gini = 0.0\nsamples = 1\nvalue = [1, 0]"] ;
1149 -> 1150 ;
1151 [label="gini = 0.0\nsamples = 2\nvalue = [0, 2]"] ;
1149 -> 1151 ;
1152 [label="html_ratio <= 0.209\ngini = 0.5\nsamples = 322\nvalue = [160, 162]"] ;
1146 -> 1152 ;
1153 [label="image_ratio <= 0.014\ngini = 0.26\nsamples = 13\nvalue = [11, 2]"] ;
1152 -> 1153 ;
1154 [label="gini = 0.0\nsamples = 1\nvalue = [0, 1]"] ;
1153 -> 1154 ;
1155 [label="image_ratio <= 0.028\ngini = 0.153\nsamples = 12\nvalue = [11, 1]"] ;
1153 -> 1155 ;
1156 [label="gini = 0.0\nsamples = 8\nvalue = [8, 0]"] ;
1155 -> 1156 ;
1157 [label="image_ratio <= 0.031\ngini = 0.375\nsamples = 4\nvalue = [3, 1]"] ;
1155 -> 1157 ;
1158 [label="gini = 0.0\nsamples = 1\nvalue = [0, 1]"] ;
1157 -> 1158 ;
1159 [label="gini = 0.0\nsamples = 3\nvalue = [3, 0]"] ;
1157 -> 1159 ;
1160 [label="html_ratio <= 0.212\ngini = 0.499\nsamples = 309\nvalue = [149, 160]"] ;
1152 -> 1160 ;
1161 [label="image_ratio <= 0.021\ngini = 0.375\nsamples = 16\nvalue = [4, 12]"] ;
1160 -> 1161 ;
1162 [label="image_ratio <= 0.015\ngini = 0.5\nsamples = 6\nvalue = [3, 3]"] ;
1161 -> 1162 ;
1163 [label="gini = 0.0\nsamples = 3\nvalue = [0, 3]"] ;
1162 -> 1163 ;
1164 [label="gini = 0.0\nsamples = 3\nvalue = [3, 0]"] ;
1162 -> 1164 ;
1165 [label="html_ratio <= 0.21\ngini = 0.18\nsamples = 10\nvalue = [1, 9]"] ;
1161 -> 1165 ;
1166 [label="html_ratio <= 0.209\ngini = 0.375\nsamples = 4\nvalue = [1, 3]"] ;
1165 -> 1166 ;
1167 [label="gini = 0.0\nsamples = 3\nvalue = [0, 3]"] ;
1166 -> 1167 ;
1168 [label="gini = 0.0\nsamples = 1\nvalue = [1, 0]"] ;
1166 -> 1168 ;
1169 [label="gini = 0.0\nsamples = 6\nvalue = [0, 6]"] ;
1165 -> 1169 ;
1170 [label="html_ratio <= 0.247\ngini = 0.5\nsamples = 293\nvalue = [145, 148]"] ;
1160 -> 1170 ;
1171 [label="html_ratio <= 0.225\ngini = 0.5\nsamples = 290\nvalue = [145, 145]"] ;
1170 -> 1171 ;
1172 [label="image_ratio <= 0.035\ngini = 0.491\nsamples = 81\nvalue = [35, 46]"] ;
1171 -> 1172 ;
1173 [label="image_ratio <= 0.033\ngini = 0.498\nsamples = 75\nvalue = [35, 40]"] ;
1172 -> 1173 ;
1174 [label="html_ratio <= 0.213\ngini = 0.487\nsamples = 69\nvalue = [29, 40]"] ;
1173 -> 1174 ;
1175 [label="html_ratio <= 0.213\ngini = 0.444\nsamples = 9\nvalue = [6, 3]"] ;
1174 -> 1175 ;
1176 [label="html_ratio <= 0.212\ngini = 0.48\nsamples = 5\nvalue = [2, 3]"] ;
1175 -> 1176 ;
1177 [label="image_ratio <= 0.021\ngini = 0.444\nsamples = 3\nvalue = [2, 1]"] ;
1176 -> 1177 ;
1178 [label="gini = 0.0\nsamples = 1\nvalue = [0, 1]"] ;
1177 -> 1178 ;
1179 [label="gini = 0.0\nsamples = 2\nvalue = [2, 0]"] ;
1177 -> 1179 ;
1180 [label="gini = 0.0\nsamples = 2\nvalue = [0, 2]"] ;
1176 -> 1180 ;
1181 [label="gini = 0.0\nsamples = 4\nvalue = [4, 0]"] ;
1175 -> 1181 ;
1182 [label="image_ratio <= 0.026\ngini = 0.473\nsamples = 60\nvalue = [23, 37]"] ;
1174 -> 1182 ;
1183 [label="image_ratio <= 0.013\ngini = 0.433\nsamples = 41\nvalue = [13, 28]"] ;
1182 -> 1183 ;
1184 [label="html_ratio <= 0.217\ngini = 0.469\nsamples = 8\nvalue = [5, 3]"] ;
1183 -> 1184 ;
1185 [label="gini = 0.0\nsamples = 1\nvalue = [0, 1]"] ;
1184 -> 1185 ;
1186 [label="html_ratio <= 0.221\ngini = 0.408\nsamples = 7\nvalue = [5, 2]"] ;
1184 -> 1186 ;
1187 [label="gini = 0.0\nsamples = 3\nvalue = [3, 0]"] ;
1186 -> 1187 ;
1188 [label="html_ratio <= 0.223\ngini = 0.5\nsamples = 4\nvalue = [2, 2]"] ;
1186 -> 1188 ;
1189 [label="gini = 0.0\nsamples = 2\nvalue = [0, 2]"] ;
1188 -> 1189 ;
1190 [label="gini = 0.0\nsamples = 2\nvalue = [2, 0]"] ;
1188 -> 1190 ;
1191 [label="image_ratio <= 0.025\ngini = 0.367\nsamples = 33\nvalue = [8, 25]"] ;
1183 -> 1191 ;
1192 [label="image_ratio <= 0.025\ngini = 0.408\nsamples = 28\nvalue = [8, 20]"] ;
1191 -> 1192 ;
1193 [label="image_ratio <= 0.019\ngini = 0.355\nsamples = 26\nvalue = [6, 20]"] ;
1192 -> 1193 ;
1194 [label="html_ratio <= 0.225\ngini = 0.245\nsamples = 14\nvalue = [2, 12]"] ;
1193 -> 1194 ;
1195 [label="image_ratio <= 0.013\ngini = 0.142\nsamples = 13\nvalue = [1, 12]"] ;
1194 -> 1195 ;
1196 [label="image_ratio <= 0.013\ngini = 0.375\nsamples = 4\nvalue = [1, 3]"] ;
1195 -> 1196 ;
1197 [label="gini = 0.0\nsamples = 3\nvalue = [0, 3]"] ;
1196 -> 1197 ;
1198 [label="gini = 0.0\nsamples = 1\nvalue = [1, 0]"] ;
1196 -> 1198 ;
1199 [label="gini = 0.0\nsamples = 9\nvalue = [0, 9]"] ;
1195 -> 1199 ;
1200 [label="gini = 0.0\nsamples = 1\nvalue = [1, 0]"] ;
1194 -> 1200 ;
1201 [label="image_ratio <= 0.02\ngini = 0.444\nsamples = 12\nvalue = [4, 8]"] ;
1193 -> 1201 ;
1202 [label="gini = 0.0\nsamples = 1\nvalue = [1, 0]"] ;
1201 -> 1202 ;
1203 [label="html_ratio <= 0.218\ngini = 0.397\nsamples = 11\nvalue = [3, 8]"] ;
1201 -> 1203 ;
1204 [label="gini = 0.0\nsamples = 2\nvalue = [0, 2]"] ;
1203 -> 1204 ;
1205 [label="html_ratio <= 0.22\ngini = 0.444\nsamples = 9\nvalue = [3, 6]"] ;
1203 -> 1205 ;
1206 [label="gini = 0.0\nsamples = 1\nvalue = [1, 0]"] ;
1205 -> 1206 ;
1207 [label="html_ratio <= 0.221\ngini = 0.375\nsamples = 8\nvalue = [2, 6]"] ;
1205 -> 1207 ;
1208 [label="gini = 0.0\nsamples = 3\nvalue = [0, 3]"] ;
1207 -> 1208 ;
1209 [label="image_ratio <= 0.021\ngini = 0.48\nsamples = 5\nvalue = [2, 3]"] ;
1207 -> 1209 ;
1210 [label="gini = 0.0\nsamples = 2\nvalue = [0, 2]"] ;
1209 -> 1210 ;
1211 [label="image_ratio <= 0.023\ngini = 0.444\nsamples = 3\nvalue = [2, 1]"] ;
1209 -> 1211 ;
1212 [label="gini = 0.0\nsamples = 2\nvalue = [2, 0]"] ;
1211 -> 1212 ;
1213 [label="gini = 0.0\nsamples = 1\nvalue = [0, 1]"] ;
1211 -> 1213 ;
1214 [label="gini = 0.0\nsamples = 2\nvalue = [2, 0]"] ;
1192 -> 1214 ;
1215 [label="gini = 0.0\nsamples = 5\nvalue = [0, 5]"] ;
1191 -> 1215 ;
1216 [label="image_ratio <= 0.028\ngini = 0.499\nsamples = 19\nvalue = [10, 9]"] ;
1182 -> 1216 ;
1217 [label="gini = 0.0\nsamples = 3\nvalue = [3, 0]"] ;
1216 -> 1217 ;
1218 [label="html_ratio <= 0.221\ngini = 0.492\nsamples = 16\nvalue = [7, 9]"] ;
1216 -> 1218 ;
1219 [label="image_ratio <= 0.031\ngini = 0.278\nsamples = 6\nvalue = [1, 5]"] ;
1218 -> 1219 ;
1220 [label="gini = 0.0\nsamples = 4\nvalue = [0, 4]"] ;
1219 -> 1220 ;
1221 [label="image_ratio <= 0.033\ngini = 0.5\nsamples = 2\nvalue = [1, 1]"] ;
1219 -> 1221 ;
1222 [label="gini = 0.0\nsamples = 1\nvalue = [1, 0]"] ;
1221 -> 1222 ;
1223 [label="gini = 0.0\nsamples = 1\nvalue = [0, 1]"] ;
1221 -> 1223 ;
1224 [label="html_ratio <= 0.223\ngini = 0.48\nsamples = 10\nvalue = [6, 4]"] ;
1218 -> 1224 ;
